digraph Tree {
node [shape=box] ;
0 [label="X[30] <= 0.5\ngini = 0.3728\nsamples = 28941\nvalue = [21768, 7173]"] ;
1 [label="X[2] <= 0.0714\ngini = 0.1258\nsamples = 15403\nvalue = [14364, 1039]"] ;
0 -> 1 [labeldistance=2.5, labelangle=45, headlabel="True"] ;
2 [label="X[1] <= 0.7667\ngini = 0.0963\nsamples = 15125\nvalue = [14358, 767]"] ;
1 -> 2 ;
3 [label="X[3] <= 0.549\ngini = 0.0494\nsamples = 12042\nvalue = [11737, 305]"] ;
2 -> 3 ;
4 [label="X[4] <= 0.4031\ngini = 0.0475\nsamples = 12025\nvalue = [11732, 293]"] ;
3 -> 4 ;
5 [label="X[0] <= 0.226\ngini = 0.0287\nsamples = 9820\nvalue = [9677, 143]"] ;
4 -> 5 ;
6 [label="X[3] <= 0.5092\ngini = 0.0074\nsamples = 5687\nvalue = [5666, 21]"] ;
5 -> 6 ;
7 [label="X[2] <= 0.0472\ngini = 0.007\nsamples = 5680\nvalue = [5660, 20]"] ;
6 -> 7 ;
8 [label="X[7] <= 0.5\ngini = 0.0067\nsamples = 5671\nvalue = [5652, 19]"] ;
7 -> 8 ;
9 [label="X[74] <= 0.5\ngini = 0.0306\nsamples = 644\nvalue = [634, 10]"] ;
8 -> 9 ;
10 [label="X[34] <= 0.5\ngini = 0.0277\nsamples = 641\nvalue = [632, 9]"] ;
9 -> 10 ;
11 [label="X[0] <= 0.0753\ngini = 0.0248\nsamples = 637\nvalue = [629, 8]"] ;
10 -> 11 ;
12 [label="gini = 0.0\nsamples = 234\nvalue = [234, 0]"] ;
11 -> 12 ;
13 [label="X[56] <= 0.5\ngini = 0.0389\nsamples = 403\nvalue = [395, 8]"] ;
11 -> 13 ;
14 [label="X[55] <= 0.5\ngini = 0.0346\nsamples = 398\nvalue = [391, 7]"] ;
13 -> 14 ;
15 [label="X[1] <= 0.5667\ngini = 0.0305\nsamples = 387\nvalue = [381, 6]"] ;
14 -> 15 ;
16 [label="X[33] <= 0.5\ngini = 0.0103\nsamples = 193\nvalue = [192, 1]"] ;
15 -> 16 ;
17 [label="gini = 0.0\nsamples = 178\nvalue = [178, 0]"] ;
16 -> 17 ;
18 [label="gini = 0.1244\nsamples = 15\nvalue = [14, 1]"] ;
16 -> 18 ;
19 [label="X[8] <= 0.5\ngini = 0.0502\nsamples = 194\nvalue = [189, 5]"] ;
15 -> 19 ;
20 [label="X[45] <= 0.5\ngini = 0.0416\nsamples = 188\nvalue = [184, 4]"] ;
19 -> 20 ;
21 [label="X[44] <= 0.5\ngini = 0.0244\nsamples = 162\nvalue = [160, 2]"] ;
20 -> 21 ;
22 [label="X[42] <= 0.5\ngini = 0.0141\nsamples = 141\nvalue = [140, 1]"] ;
21 -> 22 ;
23 [label="gini = 0.0\nsamples = 114\nvalue = [114, 0]"] ;
22 -> 23 ;
24 [label="gini = 0.0713\nsamples = 27\nvalue = [26, 1]"] ;
22 -> 24 ;
25 [label="gini = 0.0907\nsamples = 21\nvalue = [20, 1]"] ;
21 -> 25 ;
26 [label="gini = 0.142\nsamples = 26\nvalue = [24, 2]"] ;
20 -> 26 ;
27 [label="gini = 0.2778\nsamples = 6\nvalue = [5, 1]"] ;
19 -> 27 ;
28 [label="gini = 0.1653\nsamples = 11\nvalue = [10, 1]"] ;
14 -> 28 ;
29 [label="gini = 0.32\nsamples = 5\nvalue = [4, 1]"] ;
13 -> 29 ;
30 [label="gini = 0.375\nsamples = 4\nvalue = [3, 1]"] ;
10 -> 30 ;
31 [label="gini = 0.4444\nsamples = 3\nvalue = [2, 1]"] ;
9 -> 31 ;
32 [label="X[20] <= 0.5\ngini = 0.0036\nsamples = 5027\nvalue = [5018, 9]"] ;
8 -> 32 ;
33 [label="X[17] <= 0.5\ngini = 0.0025\nsamples = 4821\nvalue = [4815, 6]"] ;
32 -> 33 ;
34 [label="X[45] <= 0.5\ngini = 0.0021\nsamples = 4774\nvalue = [4769, 5]"] ;
33 -> 34 ;
35 [label="X[37] <= 0.5\ngini = 0.0017\nsamples = 4727\nvalue = [4723, 4]"] ;
34 -> 35 ;
36 [label="X[1] <= 0.6667\ngini = 0.0009\nsamples = 4289\nvalue = [4287, 2]"] ;
35 -> 36 ;
37 [label="X[46] <= 0.5\ngini = 0.0005\nsamples = 4131\nvalue = [4130, 1]"] ;
36 -> 37 ;
38 [label="gini = 0.0\nsamples = 3385\nvalue = [3385, 0]"] ;
37 -> 38 ;
39 [label="X[50] <= 0.5\ngini = 0.0027\nsamples = 746\nvalue = [745, 1]"] ;
37 -> 39 ;
40 [label="gini = 0.0\nsamples = 573\nvalue = [573, 0]"] ;
39 -> 40 ;
41 [label="X[4] <= 0.25\ngini = 0.0115\nsamples = 173\nvalue = [172, 1]"] ;
39 -> 41 ;
42 [label="gini = 0.0571\nsamples = 34\nvalue = [33, 1]"] ;
41 -> 42 ;
43 [label="gini = 0.0\nsamples = 139\nvalue = [139, 0]"] ;
41 -> 43 ;
44 [label="X[38] <= 0.5\ngini = 0.0126\nsamples = 158\nvalue = [157, 1]"] ;
36 -> 44 ;
45 [label="gini = 0.0\nsamples = 143\nvalue = [143, 0]"] ;
44 -> 45 ;
46 [label="gini = 0.1244\nsamples = 15\nvalue = [14, 1]"] ;
44 -> 46 ;
47 [label="X[0] <= 0.2123\ngini = 0.0091\nsamples = 438\nvalue = [436, 2]"] ;
35 -> 47 ;
48 [label="X[28] <= 0.5\ngini = 0.0047\nsamples = 425\nvalue = [424, 1]"] ;
47 -> 48 ;
49 [label="gini = 0.0\nsamples = 388\nvalue = [388, 0]"] ;
48 -> 49 ;
50 [label="gini = 0.0526\nsamples = 37\nvalue = [36, 1]"] ;
48 -> 50 ;
51 [label="gini = 0.142\nsamples = 13\nvalue = [12, 1]"] ;
47 -> 51 ;
52 [label="gini = 0.0416\nsamples = 47\nvalue = [46, 1]"] ;
34 -> 52 ;
53 [label="gini = 0.0416\nsamples = 47\nvalue = [46, 1]"] ;
33 -> 53 ;
54 [label="X[0] <= 0.1712\ngini = 0.0287\nsamples = 206\nvalue = [203, 3]"] ;
32 -> 54 ;
55 [label="X[4] <= 0.3112\ngini = 0.0131\nsamples = 152\nvalue = [151, 1]"] ;
54 -> 55 ;
56 [label="gini = 0.0768\nsamples = 25\nvalue = [24, 1]"] ;
55 -> 56 ;
57 [label="gini = 0.0\nsamples = 127\nvalue = [127, 0]"] ;
55 -> 57 ;
58 [label="gini = 0.0713\nsamples = 54\nvalue = [52, 2]"] ;
54 -> 58 ;
59 [label="gini = 0.1975\nsamples = 9\nvalue = [8, 1]"] ;
7 -> 59 ;
60 [label="gini = 0.2449\nsamples = 7\nvalue = [6, 1]"] ;
6 -> 60 ;
61 [label="X[44] <= 0.5\ngini = 0.0573\nsamples = 4133\nvalue = [4011, 122]"] ;
5 -> 61 ;
62 [label="X[38] <= 0.5\ngini = 0.0486\nsamples = 3929\nvalue = [3831, 98]"] ;
61 -> 62 ;
63 [label="X[54] <= 0.5\ngini = 0.0401\nsamples = 3615\nvalue = [3541, 74]"] ;
62 -> 63 ;
64 [label="X[45] <= 0.5\ngini = 0.0391\nsamples = 3611\nvalue = [3539, 72]"] ;
63 -> 64 ;
65 [label="X[2] <= 0.0472\ngini = 0.036\nsamples = 3541\nvalue = [3476, 65]"] ;
64 -> 65 ;
66 [label="X[3] <= 0.5161\ngini = 0.0341\nsamples = 3514\nvalue = [3453, 61]"] ;
65 -> 66 ;
67 [label="X[37] <= 0.5\ngini = 0.0331\nsamples = 3505\nvalue = [3446, 59]"] ;
66 -> 67 ;
68 [label="X[0] <= 0.5548\ngini = 0.0261\nsamples = 3028\nvalue = [2988, 40]"] ;
67 -> 68 ;
69 [label="X[50] <= 0.5\ngini = 0.0187\nsamples = 2433\nvalue = [2410, 23]"] ;
68 -> 69 ;
70 [label="X[18] <= 0.5\ngini = 0.0091\nsamples = 1311\nvalue = [1305, 6]"] ;
69 -> 70 ;
71 [label="X[19] <= 0.5\ngini = 0.0078\nsamples = 1283\nvalue = [1278, 5]"] ;
70 -> 71 ;
72 [label="X[53] <= 0.5\ngini = 0.0065\nsamples = 1227\nvalue = [1223, 4]"] ;
71 -> 72 ;
73 [label="X[27] <= 0.5\ngini = 0.0158\nsamples = 377\nvalue = [374, 3]"] ;
72 -> 73 ;
74 [label="X[35] <= 0.5\ngini = 0.007\nsamples = 283\nvalue = [282, 1]"] ;
73 -> 74 ;
75 [label="gini = 0.0\nsamples = 212\nvalue = [212, 0]"] ;
74 -> 75 ;
76 [label="gini = 0.0278\nsamples = 71\nvalue = [70, 1]"] ;
74 -> 76 ;
77 [label="gini = 0.0416\nsamples = 94\nvalue = [92, 2]"] ;
73 -> 77 ;
78 [label="X[61] <= 0.5\ngini = 0.0024\nsamples = 850\nvalue = [849, 1]"] ;
72 -> 78 ;
79 [label="gini = 0.0\nsamples = 748\nvalue = [748, 0]"] ;
78 -> 79 ;
80 [label="X[0] <= 0.2808\ngini = 0.0194\nsamples = 102\nvalue = [101, 1]"] ;
78 -> 80 ;
81 [label="gini = 0.0832\nsamples = 23\nvalue = [22, 1]"] ;
80 -> 81 ;
82 [label="gini = 0.0\nsamples = 79\nvalue = [79, 0]"] ;
80 -> 82 ;
83 [label="gini = 0.0351\nsamples = 56\nvalue = [55, 1]"] ;
71 -> 83 ;
84 [label="gini = 0.0689\nsamples = 28\nvalue = [27, 1]"] ;
70 -> 84 ;
85 [label="X[27] <= 0.5\ngini = 0.0298\nsamples = 1122\nvalue = [1105, 17]"] ;
69 -> 85 ;
86 [label="X[14] <= 0.5\ngini = 0.0187\nsamples = 849\nvalue = [841, 8]"] ;
85 -> 86 ;
87 [label="X[40] <= 0.5\ngini = 0.0166\nsamples = 837\nvalue = [830, 7]"] ;
86 -> 87 ;
88 [label="X[0] <= 0.5411\ngini = 0.0127\nsamples = 780\nvalue = [775, 5]"] ;
87 -> 88 ;
89 [label="X[1] <= 0.6\ngini = 0.0106\nsamples = 752\nvalue = [748, 4]"] ;
88 -> 89 ;
90 [label="X[35] <= 0.5\ngini = 0.0062\nsamples = 639\nvalue = [637, 2]"] ;
89 -> 90 ;
91 [label="gini = 0.0\nsamples = 507\nvalue = [507, 0]"] ;
90 -> 91 ;
92 [label="X[13] <= 0.5\ngini = 0.0298\nsamples = 132\nvalue = [130, 2]"] ;
90 -> 92 ;
93 [label="X[4] <= 0.3724\ngini = 0.0155\nsamples = 128\nvalue = [127, 1]"] ;
92 -> 93 ;
94 [label="gini = 0.0907\nsamples = 21\nvalue = [20, 1]"] ;
93 -> 94 ;
95 [label="gini = 0.0\nsamples = 107\nvalue = [107, 0]"] ;
93 -> 95 ;
96 [label="gini = 0.375\nsamples = 4\nvalue = [3, 1]"] ;
92 -> 96 ;
97 [label="X[0] <= 0.2671\ngini = 0.0348\nsamples = 113\nvalue = [111, 2]"] ;
89 -> 97 ;
98 [label="gini = 0.1472\nsamples = 25\nvalue = [23, 2]"] ;
97 -> 98 ;
99 [label="gini = 0.0\nsamples = 88\nvalue = [88, 0]"] ;
97 -> 99 ;
100 [label="gini = 0.0689\nsamples = 28\nvalue = [27, 1]"] ;
88 -> 100 ;
101 [label="gini = 0.0677\nsamples = 57\nvalue = [55, 2]"] ;
87 -> 101 ;
102 [label="gini = 0.1528\nsamples = 12\nvalue = [11, 1]"] ;
86 -> 102 ;
103 [label="X[47] <= 0.5\ngini = 0.0638\nsamples = 273\nvalue = [264, 9]"] ;
85 -> 103 ;
104 [label="X[48] <= 0.5\ngini = 0.0524\nsamples = 260\nvalue = [253, 7]"] ;
103 -> 104 ;
105 [label="X[28] <= 0.5\ngini = 0.0398\nsamples = 246\nvalue = [241, 5]"] ;
104 -> 105 ;
106 [label="X[0] <= 0.4041\ngini = 0.0172\nsamples = 115\nvalue = [114, 1]"] ;
105 -> 106 ;
107 [label="gini = 0.0\nsamples = 83\nvalue = [83, 0]"] ;
106 -> 107 ;
108 [label="gini = 0.0605\nsamples = 32\nvalue = [31, 1]"] ;
106 -> 108 ;
109 [label="X[0] <= 0.3356\ngini = 0.0592\nsamples = 131\nvalue = [127, 4]"] ;
105 -> 109 ;
110 [label="gini = 0.1327\nsamples = 42\nvalue = [39, 3]"] ;
109 -> 110 ;
111 [label="gini = 0.0222\nsamples = 89\nvalue = [88, 1]"] ;
109 -> 111 ;
112 [label="gini = 0.2449\nsamples = 14\nvalue = [12, 2]"] ;
104 -> 112 ;
113 [label="gini = 0.2604\nsamples = 13\nvalue = [11, 2]"] ;
103 -> 113 ;
114 [label="X[46] <= 0.5\ngini = 0.0555\nsamples = 595\nvalue = [578, 17]"] ;
68 -> 114 ;
115 [label="X[0] <= 0.9863\ngini = 0.042\nsamples = 512\nvalue = [501, 11]"] ;
114 -> 115 ;
116 [label="X[94] <= 0.5\ngini = 0.0387\nsamples = 506\nvalue = [496, 10]"] ;
115 -> 116 ;
117 [label="X[3] <= 0.3522\ngini = 0.0354\nsamples = 499\nvalue = [490, 9]"] ;
116 -> 117 ;
118 [label="X[6] <= 0.5\ngini = 0.032\nsamples = 492\nvalue = [484, 8]"] ;
117 -> 118 ;
119 [label="X[13] <= 0.5\ngini = 0.0223\nsamples = 444\nvalue = [439, 5]"] ;
118 -> 119 ;
120 [label="X[47] <= 0.5\ngini = 0.0142\nsamples = 420\nvalue = [417, 3]"] ;
119 -> 120 ;
121 [label="X[0] <= 0.5685\ngini = 0.0099\nsamples = 403\nvalue = [401, 2]"] ;
120 -> 121 ;
122 [label="gini = 0.0555\nsamples = 35\nvalue = [34, 1]"] ;
121 -> 122 ;
123 [label="X[35] <= 0.5\ngini = 0.0054\nsamples = 368\nvalue = [367, 1]"] ;
121 -> 123 ;
124 [label="gini = 0.0\nsamples = 247\nvalue = [247, 0]"] ;
123 -> 124 ;
125 [label="X[34] <= 0.5\ngini = 0.0164\nsamples = 121\nvalue = [120, 1]"] ;
123 -> 125 ;
126 [label="gini = 0.0\nsamples = 66\nvalue = [66, 0]"] ;
125 -> 126 ;
127 [label="gini = 0.0357\nsamples = 55\nvalue = [54, 1]"] ;
125 -> 127 ;
128 [label="gini = 0.1107\nsamples = 17\nvalue = [16, 1]"] ;
120 -> 128 ;
129 [label="gini = 0.1528\nsamples = 24\nvalue = [22, 2]"] ;
119 -> 129 ;
130 [label="gini = 0.1172\nsamples = 48\nvalue = [45, 3]"] ;
118 -> 130 ;
131 [label="gini = 0.2449\nsamples = 7\nvalue = [6, 1]"] ;
117 -> 131 ;
132 [label="gini = 0.2449\nsamples = 7\nvalue = [6, 1]"] ;
116 -> 132 ;
133 [label="gini = 0.2778\nsamples = 6\nvalue = [5, 1]"] ;
115 -> 133 ;
134 [label="gini = 0.1341\nsamples = 83\nvalue = [77, 6]"] ;
114 -> 134 ;
135 [label="X[0] <= 0.2945\ngini = 0.0765\nsamples = 477\nvalue = [458, 19]"] ;
67 -> 135 ;
136 [label="gini = 0.0\nsamples = 152\nvalue = [152, 0]"] ;
135 -> 136 ;
137 [label="X[66] <= 0.5\ngini = 0.1101\nsamples = 325\nvalue = [306, 19]"] ;
135 -> 137 ;
138 [label="X[27] <= 0.5\ngini = 0.1052\nsamples = 323\nvalue = [305, 18]"] ;
137 -> 138 ;
139 [label="X[0] <= 0.3493\ngini = 0.0777\nsamples = 247\nvalue = [237, 10]"] ;
138 -> 139 ;
140 [label="gini = 0.0256\nsamples = 77\nvalue = [76, 1]"] ;
139 -> 140 ;
141 [label="X[33] <= 0.5\ngini = 0.1003\nsamples = 170\nvalue = [161, 9]"] ;
139 -> 141 ;
142 [label="X[18] <= 0.5\ngini = 0.0857\nsamples = 156\nvalue = [149, 7]"] ;
141 -> 142 ;
143 [label="X[6] <= 0.5\ngini = 0.0763\nsamples = 151\nvalue = [145, 6]"] ;
142 -> 143 ;
144 [label="X[20] <= 0.5\ngini = 0.067\nsamples = 144\nvalue = [139, 5]"] ;
143 -> 144 ;
145 [label="X[52] <= 0.5\ngini = 0.0571\nsamples = 136\nvalue = [132, 4]"] ;
144 -> 145 ;
146 [label="X[28] <= 0.5\ngini = 0.0468\nsamples = 125\nvalue = [122, 3]"] ;
145 -> 146 ;
147 [label="gini = 0.0\nsamples = 59\nvalue = [59, 0]"] ;
146 -> 147 ;
148 [label="gini = 0.0868\nsamples = 66\nvalue = [63, 3]"] ;
146 -> 148 ;
149 [label="gini = 0.1653\nsamples = 11\nvalue = [10, 1]"] ;
145 -> 149 ;
150 [label="gini = 0.2188\nsamples = 8\nvalue = [7, 1]"] ;
144 -> 150 ;
151 [label="gini = 0.2449\nsamples = 7\nvalue = [6, 1]"] ;
143 -> 151 ;
152 [label="gini = 0.32\nsamples = 5\nvalue = [4, 1]"] ;
142 -> 152 ;
153 [label="gini = 0.2449\nsamples = 14\nvalue = [12, 2]"] ;
141 -> 153 ;
154 [label="gini = 0.1884\nsamples = 76\nvalue = [68, 8]"] ;
138 -> 154 ;
155 [label="gini = 0.5\nsamples = 2\nvalue = [1, 1]"] ;
137 -> 155 ;
156 [label="gini = 0.3457\nsamples = 9\nvalue = [7, 2]"] ;
66 -> 156 ;
157 [label="gini = 0.2524\nsamples = 27\nvalue = [23, 4]"] ;
65 -> 157 ;
158 [label="gini = 0.18\nsamples = 70\nvalue = [63, 7]"] ;
64 -> 158 ;
159 [label="gini = 0.5\nsamples = 4\nvalue = [2, 2]"] ;
63 -> 159 ;
160 [label="X[7] <= 0.5\ngini = 0.1412\nsamples = 314\nvalue = [290, 24]"] ;
62 -> 160 ;
161 [label="X[20] <= 0.5\ngini = 0.0392\nsamples = 100\nvalue = [98, 2]"] ;
160 -> 161 ;
162 [label="gini = 0.0215\nsamples = 92\nvalue = [91, 1]"] ;
161 -> 162 ;
163 [label="gini = 0.2188\nsamples = 8\nvalue = [7, 1]"] ;
161 -> 163 ;
164 [label="X[2] <= 0.0471\ngini = 0.1845\nsamples = 214\nvalue = [192, 22]"] ;
160 -> 164 ;
165 [label="X[60] <= 0.5\ngini = 0.1777\nsamples = 213\nvalue = [192, 21]"] ;
164 -> 165 ;
166 [label="gini = 0.2873\nsamples = 46\nvalue = [38, 8]"] ;
165 -> 166 ;
167 [label="X[0] <= 0.4452\ngini = 0.1436\nsamples = 167\nvalue = [154, 13]"] ;
165 -> 167 ;
168 [label="X[0] <= 0.4315\ngini = 0.1913\nsamples = 112\nvalue = [100, 12]"] ;
167 -> 168 ;
169 [label="X[32] <= 0.5\ngini = 0.1709\nsamples = 106\nvalue = [96, 10]"] ;
168 -> 169 ;
170 [label="gini = 0.2055\nsamples = 86\nvalue = [76, 10]"] ;
169 -> 170 ;
171 [label="gini = 0.0\nsamples = 20\nvalue = [20, 0]"] ;
169 -> 171 ;
172 [label="gini = 0.4444\nsamples = 6\nvalue = [4, 2]"] ;
168 -> 172 ;
173 [label="gini = 0.0357\nsamples = 55\nvalue = [54, 1]"] ;
167 -> 173 ;
174 [label="gini = 0.0\nsamples = 1\nvalue = [0, 1]"] ;
164 -> 174 ;
175 [label="X[5] <= 0.5\ngini = 0.2076\nsamples = 204\nvalue = [180, 24]"] ;
61 -> 175 ;
176 [label="X[60] <= 0.5\ngini = 0.1707\nsamples = 191\nvalue = [173, 18]"] ;
175 -> 176 ;
177 [label="gini = 0.32\nsamples = 55\nvalue = [44, 11]"] ;
176 -> 177 ;
178 [label="X[82] <= 0.5\ngini = 0.0976\nsamples = 136\nvalue = [129, 7]"] ;
176 -> 178 ;
179 [label="X[4] <= 0.3724\ngini = 0.0849\nsamples = 135\nvalue = [129, 6]"] ;
178 -> 179 ;
180 [label="gini = 0.0\nsamples = 46\nvalue = [46, 0]"] ;
179 -> 180 ;
181 [label="gini = 0.1257\nsamples = 89\nvalue = [83, 6]"] ;
179 -> 181 ;
182 [label="gini = 0.0\nsamples = 1\nvalue = [0, 1]"] ;
178 -> 182 ;
183 [label="gini = 0.497\nsamples = 13\nvalue = [7, 6]"] ;
175 -> 183 ;
184 [label="X[0] <= 0.2945\ngini = 0.1268\nsamples = 2205\nvalue = [2055, 150]"] ;
4 -> 184 ;
185 [label="X[7] <= 0.5\ngini = 0.0685\nsamples = 1379\nvalue = [1330, 49]"] ;
184 -> 185 ;
186 [label="X[14] <= 0.5\ngini = 0.1582\nsamples = 254\nvalue = [232, 22]"] ;
185 -> 186 ;
187 [label="X[0] <= 0.1164\ngini = 0.1522\nsamples = 253\nvalue = [232, 21]"] ;
186 -> 187 ;
188 [label="gini = 0.0\nsamples = 53\nvalue = [53, 0]"] ;
187 -> 188 ;
189 [label="X[0] <= 0.1301\ngini = 0.1879\nsamples = 200\nvalue = [179, 21]"] ;
187 -> 189 ;
190 [label="gini = 0.4444\nsamples = 9\nvalue = [6, 3]"] ;
189 -> 190 ;
191 [label="X[50] <= 0.5\ngini = 0.1707\nsamples = 191\nvalue = [173, 18]"] ;
189 -> 191 ;
192 [label="gini = 0.0877\nsamples = 87\nvalue = [83, 4]"] ;
191 -> 192 ;
193 [label="X[3] <= 0.1795\ngini = 0.233\nsamples = 104\nvalue = [90, 14]"] ;
191 -> 193 ;
194 [label="X[37] <= 0.5\ngini = 0.2094\nsamples = 101\nvalue = [89, 12]"] ;
193 -> 194 ;
195 [label="gini = 0.1388\nsamples = 80\nvalue = [74, 6]"] ;
194 -> 195 ;
196 [label="gini = 0.4082\nsamples = 21\nvalue = [15, 6]"] ;
194 -> 196 ;
197 [label="gini = 0.4444\nsamples = 3\nvalue = [1, 2]"] ;
193 -> 197 ;
198 [label="gini = 0.0\nsamples = 1\nvalue = [0, 1]"] ;
186 -> 198 ;
199 [label="X[1] <= 0.6333\ngini = 0.0468\nsamples = 1125\nvalue = [1098, 27]"] ;
185 -> 199 ;
200 [label="X[4] <= 0.4133\ngini = 0.0296\nsamples = 998\nvalue = [983, 15]"] ;
199 -> 200 ;
201 [label="gini = 0.375\nsamples = 4\nvalue = [3, 1]"] ;
200 -> 201 ;
202 [label="X[2] <= 0.0479\ngini = 0.0278\nsamples = 994\nvalue = [980, 14]"] ;
200 -> 202 ;
203 [label="X[3] <= 0.4889\ngini = 0.0259\nsamples = 989\nvalue = [976, 13]"] ;
202 -> 203 ;
204 [label="X[38] <= 0.5\ngini = 0.0241\nsamples = 984\nvalue = [972, 12]"] ;
203 -> 204 ;
205 [label="X[46] <= 0.5\ngini = 0.0176\nsamples = 900\nvalue = [892, 8]"] ;
204 -> 205 ;
206 [label="X[17] <= 0.5\ngini = 0.008\nsamples = 746\nvalue = [743, 3]"] ;
205 -> 206 ;
207 [label="X[44] <= 0.5\ngini = 0.0054\nsamples = 733\nvalue = [731, 2]"] ;
206 -> 207 ;
208 [label="X[48] <= 0.5\ngini = 0.0028\nsamples = 715\nvalue = [714, 1]"] ;
207 -> 208 ;
209 [label="gini = 0.0\nsamples = 622\nvalue = [622, 0]"] ;
208 -> 209 ;
210 [label="gini = 0.0213\nsamples = 93\nvalue = [92, 1]"] ;
208 -> 210 ;
211 [label="gini = 0.1049\nsamples = 18\nvalue = [17, 1]"] ;
207 -> 211 ;
212 [label="gini = 0.142\nsamples = 13\nvalue = [12, 1]"] ;
206 -> 212 ;
213 [label="X[18] <= 0.5\ngini = 0.0628\nsamples = 154\nvalue = [149, 5]"] ;
205 -> 213 ;
214 [label="X[13] <= 0.5\ngini = 0.0516\nsamples = 151\nvalue = [147, 4]"] ;
213 -> 214 ;
215 [label="X[0] <= 0.2808\ngini = 0.0403\nsamples = 146\nvalue = [143, 3]"] ;
214 -> 215 ;
216 [label="X[0] <= 0.1301\ngini = 0.0284\nsamples = 139\nvalue = [137, 2]"] ;
215 -> 216 ;
217 [label="gini = 0.0\nsamples = 67\nvalue = [67, 0]"] ;
216 -> 217 ;
218 [label="gini = 0.054\nsamples = 72\nvalue = [70, 2]"] ;
216 -> 218 ;
219 [label="gini = 0.2449\nsamples = 7\nvalue = [6, 1]"] ;
215 -> 219 ;
220 [label="gini = 0.32\nsamples = 5\nvalue = [4, 1]"] ;
214 -> 220 ;
221 [label="gini = 0.4444\nsamples = 3\nvalue = [2, 1]"] ;
213 -> 221 ;
222 [label="gini = 0.0907\nsamples = 84\nvalue = [80, 4]"] ;
204 -> 222 ;
223 [label="gini = 0.32\nsamples = 5\nvalue = [4, 1]"] ;
203 -> 223 ;
224 [label="gini = 0.32\nsamples = 5\nvalue = [4, 1]"] ;
202 -> 224 ;
225 [label="X[49] <= 0.5\ngini = 0.1711\nsamples = 127\nvalue = [115, 12]"] ;
199 -> 225 ;
226 [label="X[63] <= 0.5\ngini = 0.1594\nsamples = 126\nvalue = [115, 11]"] ;
225 -> 226 ;
227 [label="X[2] <= 0.0348\ngini = 0.1472\nsamples = 125\nvalue = [115, 10]"] ;
226 -> 227 ;
228 [label="X[61] <= 0.5\ngini = 0.1356\nsamples = 123\nvalue = [114, 9]"] ;
227 -> 228 ;
229 [label="gini = 0.0384\nsamples = 51\nvalue = [50, 1]"] ;
228 -> 229 ;
230 [label="gini = 0.1975\nsamples = 72\nvalue = [64, 8]"] ;
228 -> 230 ;
231 [label="gini = 0.5\nsamples = 2\nvalue = [1, 1]"] ;
227 -> 231 ;
232 [label="gini = 0.0\nsamples = 1\nvalue = [0, 1]"] ;
226 -> 232 ;
233 [label="gini = 0.0\nsamples = 1\nvalue = [0, 1]"] ;
225 -> 233 ;
234 [label="X[61] <= 0.5\ngini = 0.2146\nsamples = 826\nvalue = [725, 101]"] ;
184 -> 234 ;
235 [label="X[73] <= 0.5\ngini = 0.1277\nsamples = 394\nvalue = [367, 27]"] ;
234 -> 235 ;
236 [label="X[1] <= 0.5667\ngini = 0.1236\nsamples = 393\nvalue = [367, 26]"] ;
235 -> 236 ;
237 [label="X[2] <= 0.0418\ngini = 0.0679\nsamples = 199\nvalue = [192, 7]"] ;
236 -> 237 ;
238 [label="X[13] <= 0.5\ngini = 0.0591\nsamples = 197\nvalue = [191, 6]"] ;
237 -> 238 ;
239 [label="X[8] <= 0.5\ngini = 0.0421\nsamples = 186\nvalue = [182, 4]"] ;
238 -> 239 ;
240 [label="X[10] <= 0.5\ngini = 0.0324\nsamples = 182\nvalue = [179, 3]"] ;
239 -> 240 ;
241 [label="X[47] <= 0.5\ngini = 0.0223\nsamples = 177\nvalue = [175, 2]"] ;
240 -> 241 ;
242 [label="X[38] <= 0.5\ngini = 0.0116\nsamples = 171\nvalue = [170, 1]"] ;
241 -> 242 ;
243 [label="gini = 0.0\nsamples = 142\nvalue = [142, 0]"] ;
242 -> 243 ;
244 [label="gini = 0.0666\nsamples = 29\nvalue = [28, 1]"] ;
242 -> 244 ;
245 [label="gini = 0.2778\nsamples = 6\nvalue = [5, 1]"] ;
241 -> 245 ;
246 [label="gini = 0.32\nsamples = 5\nvalue = [4, 1]"] ;
240 -> 246 ;
247 [label="gini = 0.375\nsamples = 4\nvalue = [3, 1]"] ;
239 -> 247 ;
248 [label="gini = 0.2975\nsamples = 11\nvalue = [9, 2]"] ;
238 -> 248 ;
249 [label="gini = 0.5\nsamples = 2\nvalue = [1, 1]"] ;
237 -> 249 ;
250 [label="X[45] <= 0.5\ngini = 0.1767\nsamples = 194\nvalue = [175, 19]"] ;
236 -> 250 ;
251 [label="X[4] <= 0.5663\ngini = 0.1691\nsamples = 193\nvalue = [175, 18]"] ;
250 -> 251 ;
252 [label="X[4] <= 0.5459\ngini = 0.2088\nsamples = 152\nvalue = [134, 18]"] ;
251 -> 252 ;
253 [label="X[28] <= 0.5\ngini = 0.1664\nsamples = 131\nvalue = [119, 12]"] ;
252 -> 253 ;
254 [label="gini = 0.282\nsamples = 53\nvalue = [44, 9]"] ;
253 -> 254 ;
255 [label="gini = 0.074\nsamples = 78\nvalue = [75, 3]"] ;
253 -> 255 ;
256 [label="gini = 0.4082\nsamples = 21\nvalue = [15, 6]"] ;
252 -> 256 ;
257 [label="gini = 0.0\nsamples = 41\nvalue = [41, 0]"] ;
251 -> 257 ;
258 [label="gini = 0.0\nsamples = 1\nvalue = [0, 1]"] ;
250 -> 258 ;
259 [label="gini = 0.0\nsamples = 1\nvalue = [0, 1]"] ;
235 -> 259 ;
260 [label="X[3] <= 0.4834\ngini = 0.2839\nsamples = 432\nvalue = [358, 74]"] ;
234 -> 260 ;
261 [label="X[2] <= 0.0472\ngini = 0.2746\nsamples = 426\nvalue = [356, 70]"] ;
260 -> 261 ;
262 [label="X[38] <= 0.5\ngini = 0.2632\nsamples = 417\nvalue = [352, 65]"] ;
261 -> 262 ;
263 [label="X[14] <= 0.5\ngini = 0.2303\nsamples = 354\nvalue = [307, 47]"] ;
262 -> 263 ;
264 [label="X[1] <= 0.5667\ngini = 0.2241\nsamples = 350\nvalue = [305, 45]"] ;
263 -> 264 ;
265 [label="X[47] <= 0.5\ngini = 0.1716\nsamples = 211\nvalue = [191, 20]"] ;
264 -> 265 ;
266 [label="X[0] <= 0.4726\ngini = 0.1581\nsamples = 208\nvalue = [190, 18]"] ;
265 -> 266 ;
267 [label="X[4] <= 0.4337\ngini = 0.1056\nsamples = 143\nvalue = [135, 8]"] ;
266 -> 267 ;
268 [label="gini = 0.48\nsamples = 5\nvalue = [3, 2]"] ;
267 -> 268 ;
269 [label="X[4] <= 0.5918\ngini = 0.0832\nsamples = 138\nvalue = [132, 6]"] ;
267 -> 269 ;
270 [label="X[3] <= 0.3522\ngini = 0.0392\nsamples = 100\nvalue = [98, 2]"] ;
269 -> 270 ;
271 [label="gini = 0.0206\nsamples = 96\nvalue = [95, 1]"] ;
270 -> 271 ;
272 [label="gini = 0.375\nsamples = 4\nvalue = [3, 1]"] ;
270 -> 272 ;
273 [label="gini = 0.1884\nsamples = 38\nvalue = [34, 4]"] ;
269 -> 273 ;
274 [label="gini = 0.2604\nsamples = 65\nvalue = [55, 10]"] ;
266 -> 274 ;
275 [label="gini = 0.4444\nsamples = 3\nvalue = [1, 2]"] ;
265 -> 275 ;
276 [label="X[4] <= 0.4541\ngini = 0.295\nsamples = 139\nvalue = [114, 25]"] ;
264 -> 276 ;
277 [label="gini = 0.1271\nsamples = 44\nvalue = [41, 3]"] ;
276 -> 277 ;
278 [label="gini = 0.3559\nsamples = 95\nvalue = [73, 22]"] ;
276 -> 278 ;
279 [label="gini = 0.5\nsamples = 4\nvalue = [2, 2]"] ;
263 -> 279 ;
280 [label="gini = 0.4082\nsamples = 63\nvalue = [45, 18]"] ;
262 -> 280 ;
281 [label="gini = 0.4938\nsamples = 9\nvalue = [4, 5]"] ;
261 -> 281 ;
282 [label="gini = 0.4444\nsamples = 6\nvalue = [2, 4]"] ;
260 -> 282 ;
283 [label="gini = 0.4152\nsamples = 17\nvalue = [5, 12]"] ;
3 -> 283 ;
284 [label="X[4] <= 0.4235\ngini = 0.2548\nsamples = 3083\nvalue = [2621, 462]"] ;
2 -> 284 ;
285 [label="X[3] <= 0.4858\ngini = 0.1541\nsamples = 2057\nvalue = [1884, 173]"] ;
284 -> 285 ;
286 [label="X[0] <= 0.226\ngini = 0.1447\nsamples = 2038\nvalue = [1878, 160]"] ;
285 -> 286 ;
287 [label="X[0] <= 0.1438\ngini = 0.0502\nsamples = 1047\nvalue = [1020, 27]"] ;
286 -> 287 ;
288 [label="X[70] <= 0.5\ngini = 0.0254\nsamples = 700\nvalue = [691, 9]"] ;
287 -> 288 ;
289 [label="X[0] <= 0.0616\ngini = 0.0227\nsamples = 697\nvalue = [689, 8]"] ;
288 -> 289 ;
290 [label="gini = 0.18\nsamples = 10\nvalue = [9, 1]"] ;
289 -> 290 ;
291 [label="X[4] <= 0.3929\ngini = 0.0202\nsamples = 687\nvalue = [680, 7]"] ;
289 -> 291 ;
292 [label="gini = 0.0\nsamples = 260\nvalue = [260, 0]"] ;
291 -> 292 ;
293 [label="X[5] <= 0.5\ngini = 0.0322\nsamples = 427\nvalue = [420, 7]"] ;
291 -> 293 ;
294 [label="X[53] <= 0.5\ngini = 0.0285\nsamples = 415\nvalue = [409, 6]"] ;
293 -> 294 ;
295 [label="X[0] <= 0.1027\ngini = 0.0246\nsamples = 402\nvalue = [397, 5]"] ;
294 -> 295 ;
296 [label="gini = 0.0\nsamples = 171\nvalue = [171, 0]"] ;
295 -> 296 ;
297 [label="X[0] <= 0.1164\ngini = 0.0424\nsamples = 231\nvalue = [226, 5]"] ;
295 -> 297 ;
298 [label="gini = 0.0917\nsamples = 83\nvalue = [79, 4]"] ;
297 -> 298 ;
299 [label="X[35] <= 0.5\ngini = 0.0134\nsamples = 148\nvalue = [147, 1]"] ;
297 -> 299 ;
300 [label="gini = 0.0\nsamples = 123\nvalue = [123, 0]"] ;
299 -> 300 ;
301 [label="gini = 0.0768\nsamples = 25\nvalue = [24, 1]"] ;
299 -> 301 ;
302 [label="gini = 0.142\nsamples = 13\nvalue = [12, 1]"] ;
294 -> 302 ;
303 [label="gini = 0.1528\nsamples = 12\nvalue = [11, 1]"] ;
293 -> 303 ;
304 [label="gini = 0.4444\nsamples = 3\nvalue = [2, 1]"] ;
288 -> 304 ;
305 [label="X[46] <= 0.5\ngini = 0.0984\nsamples = 347\nvalue = [329, 18]"] ;
287 -> 305 ;
306 [label="X[1] <= 0.9\ngini = 0.0756\nsamples = 305\nvalue = [293, 12]"] ;
305 -> 306 ;
307 [label="X[0] <= 0.1575\ngini = 0.0603\nsamples = 289\nvalue = [280, 9]"] ;
306 -> 307 ;
308 [label="gini = 0.1528\nsamples = 48\nvalue = [44, 4]"] ;
307 -> 308 ;
309 [label="X[51] <= 0.5\ngini = 0.0406\nsamples = 241\nvalue = [236, 5]"] ;
307 -> 309 ;
310 [label="X[38] <= 0.5\ngini = 0.0336\nsamples = 234\nvalue = [230, 4]"] ;
309 -> 310 ;
311 [label="X[60] <= 0.5\ngini = 0.0208\nsamples = 190\nvalue = [188, 2]"] ;
310 -> 311 ;
312 [label="gini = 0.0\nsamples = 95\nvalue = [95, 0]"] ;
311 -> 312 ;
313 [label="gini = 0.0412\nsamples = 95\nvalue = [93, 2]"] ;
311 -> 313 ;
314 [label="gini = 0.0868\nsamples = 44\nvalue = [42, 2]"] ;
310 -> 314 ;
315 [label="gini = 0.2449\nsamples = 7\nvalue = [6, 1]"] ;
309 -> 315 ;
316 [label="gini = 0.3047\nsamples = 16\nvalue = [13, 3]"] ;
306 -> 316 ;
317 [label="gini = 0.2449\nsamples = 42\nvalue = [36, 6]"] ;
305 -> 317 ;
318 [label="X[1] <= 0.9\ngini = 0.2324\nsamples = 991\nvalue = [858, 133]"] ;
286 -> 318 ;
319 [label="X[4] <= 0.3724\ngini = 0.2073\nsamples = 911\nvalue = [804, 107]"] ;
318 -> 319 ;
320 [label="X[2] <= 0.0472\ngini = 0.1017\nsamples = 242\nvalue = [229, 13]"] ;
319 -> 320 ;
321 [label="X[85] <= 0.5\ngini = 0.0812\nsamples = 236\nvalue = [226, 10]"] ;
320 -> 321 ;
322 [label="X[24] <= 0.5\ngini = 0.0737\nsamples = 235\nvalue = [226, 9]"] ;
321 -> 322 ;
323 [label="X[51] <= 0.5\ngini = 0.0364\nsamples = 162\nvalue = [159, 3]"] ;
322 -> 323 ;
324 [label="X[52] <= 0.5\ngini = 0.0252\nsamples = 157\nvalue = [155, 2]"] ;
323 -> 324 ;
325 [label="X[57] <= 0.5\ngini = 0.0138\nsamples = 144\nvalue = [143, 1]"] ;
324 -> 325 ;
326 [label="gini = 0.0\nsamples = 132\nvalue = [132, 0]"] ;
325 -> 326 ;
327 [label="gini = 0.1528\nsamples = 12\nvalue = [11, 1]"] ;
325 -> 327 ;
328 [label="gini = 0.142\nsamples = 13\nvalue = [12, 1]"] ;
324 -> 328 ;
329 [label="gini = 0.32\nsamples = 5\nvalue = [4, 1]"] ;
323 -> 329 ;
330 [label="gini = 0.1509\nsamples = 73\nvalue = [67, 6]"] ;
322 -> 330 ;
331 [label="gini = 0.0\nsamples = 1\nvalue = [0, 1]"] ;
321 -> 331 ;
332 [label="gini = 0.5\nsamples = 6\nvalue = [3, 3]"] ;
320 -> 332 ;
333 [label="X[50] <= 0.5\ngini = 0.2415\nsamples = 669\nvalue = [575, 94]"] ;
319 -> 333 ;
334 [label="X[84] <= 0.5\ngini = 0.1347\nsamples = 234\nvalue = [217, 17]"] ;
333 -> 334 ;
335 [label="X[3] <= 0.3411\ngini = 0.1279\nsamples = 233\nvalue = [217, 16]"] ;
334 -> 335 ;
336 [label="X[0] <= 0.3904\ngini = 0.1214\nsamples = 231\nvalue = [216, 15]"] ;
335 -> 336 ;
337 [label="X[46] <= 0.5\ngini = 0.0722\nsamples = 160\nvalue = [154, 6]"] ;
336 -> 337 ;
338 [label="X[34] <= 0.5\ngini = 0.0537\nsamples = 145\nvalue = [141, 4]"] ;
337 -> 338 ;
339 [label="X[91] <= 0.5\ngini = 0.0419\nsamples = 140\nvalue = [137, 3]"] ;
338 -> 339 ;
340 [label="X[47] <= 0.5\ngini = 0.0292\nsamples = 135\nvalue = [133, 2]"] ;
339 -> 340 ;
341 [label="X[1] <= 0.8333\ngini = 0.0163\nsamples = 122\nvalue = [121, 1]"] ;
340 -> 341 ;
342 [label="gini = 0.0\nsamples = 89\nvalue = [89, 0]"] ;
341 -> 342 ;
343 [label="gini = 0.0588\nsamples = 33\nvalue = [32, 1]"] ;
341 -> 343 ;
344 [label="gini = 0.142\nsamples = 13\nvalue = [12, 1]"] ;
340 -> 344 ;
345 [label="gini = 0.32\nsamples = 5\nvalue = [4, 1]"] ;
339 -> 345 ;
346 [label="gini = 0.32\nsamples = 5\nvalue = [4, 1]"] ;
338 -> 346 ;
347 [label="gini = 0.2311\nsamples = 15\nvalue = [13, 2]"] ;
337 -> 347 ;
348 [label="gini = 0.2214\nsamples = 71\nvalue = [62, 9]"] ;
336 -> 348 ;
349 [label="gini = 0.5\nsamples = 2\nvalue = [1, 1]"] ;
335 -> 349 ;
350 [label="gini = 0.0\nsamples = 1\nvalue = [0, 1]"] ;
334 -> 350 ;
351 [label="X[79] <= 0.5\ngini = 0.2914\nsamples = 435\nvalue = [358, 77]"] ;
333 -> 351 ;
352 [label="X[38] <= 0.5\ngini = 0.2864\nsamples = 433\nvalue = [358, 75]"] ;
351 -> 352 ;
353 [label="X[44] <= 0.5\ngini = 0.248\nsamples = 331\nvalue = [283, 48]"] ;
352 -> 353 ;
354 [label="X[46] <= 0.5\ngini = 0.1588\nsamples = 161\nvalue = [147, 14]"] ;
353 -> 354 ;
355 [label="X[0] <= 0.3767\ngini = 0.0907\nsamples = 126\nvalue = [120, 6]"] ;
354 -> 355 ;
356 [label="gini = 0.0282\nsamples = 70\nvalue = [69, 1]"] ;
355 -> 356 ;
357 [label="gini = 0.1626\nsamples = 56\nvalue = [51, 5]"] ;
355 -> 357 ;
358 [label="gini = 0.3527\nsamples = 35\nvalue = [27, 8]"] ;
354 -> 358 ;
359 [label="X[0] <= 0.4589\ngini = 0.32\nsamples = 170\nvalue = [136, 34]"] ;
353 -> 359 ;
360 [label="X[0] <= 0.3082\ngini = 0.2659\nsamples = 133\nvalue = [112, 21]"] ;
359 -> 360 ;
361 [label="gini = 0.3848\nsamples = 50\nvalue = [37, 13]"] ;
360 -> 361 ;
362 [label="gini = 0.1742\nsamples = 83\nvalue = [75, 8]"] ;
360 -> 362 ;
363 [label="gini = 0.4558\nsamples = 37\nvalue = [24, 13]"] ;
359 -> 363 ;
364 [label="X[34] <= 0.5\ngini = 0.3893\nsamples = 102\nvalue = [75, 27]"] ;
352 -> 364 ;
365 [label="gini = 0.3673\nsamples = 99\nvalue = [75, 24]"] ;
364 -> 365 ;
366 [label="gini = 0.0\nsamples = 3\nvalue = [0, 3]"] ;
364 -> 366 ;
367 [label="gini = 0.0\nsamples = 2\nvalue = [0, 2]"] ;
351 -> 367 ;
368 [label="gini = 0.4387\nsamples = 80\nvalue = [54, 26]"] ;
318 -> 368 ;
369 [label="gini = 0.4321\nsamples = 19\nvalue = [6, 13]"] ;
285 -> 369 ;
370 [label="X[0] <= 0.1438\ngini = 0.4047\nsamples = 1026\nvalue = [737, 289]"] ;
284 -> 370 ;
371 [label="X[3] <= 0.5123\ngini = 0.0885\nsamples = 194\nvalue = [185, 9]"] ;
370 -> 371 ;
372 [label="X[8] <= 0.5\ngini = 0.0799\nsamples = 192\nvalue = [184, 8]"] ;
371 -> 372 ;
373 [label="X[26] <= 0.5\ngini = 0.0713\nsamples = 189\nvalue = [182, 7]"] ;
372 -> 373 ;
374 [label="X[51] <= 0.5\ngini = 0.0624\nsamples = 186\nvalue = [180, 6]"] ;
373 -> 374 ;
375 [label="X[2] <= 0.0472\ngini = 0.0537\nsamples = 181\nvalue = [176, 5]"] ;
374 -> 375 ;
376 [label="X[44] <= 0.5\ngini = 0.0444\nsamples = 176\nvalue = [172, 4]"] ;
375 -> 376 ;
377 [label="X[47] <= 0.5\ngini = 0.0179\nsamples = 111\nvalue = [110, 1]"] ;
376 -> 377 ;
378 [label="gini = 0.0\nsamples = 98\nvalue = [98, 0]"] ;
377 -> 378 ;
379 [label="gini = 0.142\nsamples = 13\nvalue = [12, 1]"] ;
377 -> 379 ;
380 [label="gini = 0.088\nsamples = 65\nvalue = [62, 3]"] ;
376 -> 380 ;
381 [label="gini = 0.32\nsamples = 5\nvalue = [4, 1]"] ;
375 -> 381 ;
382 [label="gini = 0.32\nsamples = 5\nvalue = [4, 1]"] ;
374 -> 382 ;
383 [label="gini = 0.4444\nsamples = 3\nvalue = [2, 1]"] ;
373 -> 383 ;
384 [label="gini = 0.4444\nsamples = 3\nvalue = [2, 1]"] ;
372 -> 384 ;
385 [label="gini = 0.5\nsamples = 2\nvalue = [1, 1]"] ;
371 -> 385 ;
386 [label="X[1] <= 0.9\ngini = 0.4466\nsamples = 832\nvalue = [552, 280]"] ;
370 -> 386 ;
387 [label="X[38] <= 0.5\ngini = 0.4197\nsamples = 731\nvalue = [512, 219]"] ;
386 -> 387 ;
388 [label="X[7] <= 0.5\ngini = 0.3674\nsamples = 532\nvalue = [403, 129]"] ;
387 -> 388 ;
389 [label="X[45] <= 0.5\ngini = 0.2913\nsamples = 243\nvalue = [200, 43]"] ;
388 -> 389 ;
390 [label="X[63] <= 0.5\ngini = 0.2672\nsamples = 233\nvalue = [196, 37]"] ;
389 -> 390 ;
391 [label="X[29] <= 0.5\ngini = 0.2622\nsamples = 232\nvalue = [196, 36]"] ;
390 -> 391 ;
392 [label="X[3] <= 0.549\ngini = 0.2571\nsamples = 231\nvalue = [196, 35]"] ;
391 -> 392 ;
393 [label="X[0] <= 0.4589\ngini = 0.2519\nsamples = 230\nvalue = [196, 34]"] ;
392 -> 393 ;
394 [label="X[50] <= 0.5\ngini = 0.2245\nsamples = 194\nvalue = [169, 25]"] ;
393 -> 394 ;
395 [label="gini = 0.0783\nsamples = 49\nvalue = [47, 2]"] ;
394 -> 395 ;
396 [label="X[10] <= 0.5\ngini = 0.2669\nsamples = 145\nvalue = [122, 23]"] ;
394 -> 396 ;
397 [label="X[4] <= 0.4898\ngini = 0.2966\nsamples = 127\nvalue = [104, 23]"] ;
396 -> 397 ;
398 [label="gini = 0.1653\nsamples = 33\nvalue = [30, 3]"] ;
397 -> 398 ;
399 [label="gini = 0.335\nsamples = 94\nvalue = [74, 20]"] ;
397 -> 399 ;
400 [label="gini = 0.0\nsamples = 18\nvalue = [18, 0]"] ;
396 -> 400 ;
401 [label="gini = 0.375\nsamples = 36\nvalue = [27, 9]"] ;
393 -> 401 ;
402 [label="gini = 0.0\nsamples = 1\nvalue = [0, 1]"] ;
392 -> 402 ;
403 [label="gini = 0.0\nsamples = 1\nvalue = [0, 1]"] ;
391 -> 403 ;
404 [label="gini = 0.0\nsamples = 1\nvalue = [0, 1]"] ;
390 -> 404 ;
405 [label="gini = 0.48\nsamples = 10\nvalue = [4, 6]"] ;
389 -> 405 ;
406 [label="X[0] <= 0.2123\ngini = 0.4181\nsamples = 289\nvalue = [203, 86]"] ;
388 -> 406 ;
407 [label="gini = 0.3304\nsamples = 91\nvalue = [72, 19]"] ;
406 -> 407 ;
408 [label="X[0] <= 0.4726\ngini = 0.4478\nsamples = 198\nvalue = [131, 67]"] ;
406 -> 408 ;
409 [label="X[2] <= 0.011\ngini = 0.4657\nsamples = 168\nvalue = [106, 62]"] ;
408 -> 409 ;
410 [label="X[46] <= 0.5\ngini = 0.4747\nsamples = 160\nvalue = [98, 62]"] ;
409 -> 410 ;
411 [label="X[0] <= 0.3082\ngini = 0.4501\nsamples = 114\nvalue = [75, 39]"] ;
410 -> 411 ;
412 [label="gini = 0.4962\nsamples = 46\nvalue = [25, 21]"] ;
411 -> 412 ;
413 [label="gini = 0.3893\nsamples = 68\nvalue = [50, 18]"] ;
411 -> 413 ;
414 [label="gini = 0.5\nsamples = 46\nvalue = [23, 23]"] ;
410 -> 414 ;
415 [label="gini = 0.0\nsamples = 8\nvalue = [8, 0]"] ;
409 -> 415 ;
416 [label="gini = 0.2778\nsamples = 30\nvalue = [25, 5]"] ;
408 -> 416 ;
417 [label="X[3] <= 0.4799\ngini = 0.4954\nsamples = 199\nvalue = [109, 90]"] ;
387 -> 417 ;
418 [label="X[0] <= 0.3219\ngini = 0.4891\nsamples = 190\nvalue = [109, 81]"] ;
417 -> 418 ;
419 [label="X[33] <= 0.5\ngini = 0.4527\nsamples = 104\nvalue = [68, 36]"] ;
418 -> 419 ;
420 [label="X[3] <= 0.0244\ngini = 0.44\nsamples = 101\nvalue = [68, 33]"] ;
419 -> 420 ;
421 [label="gini = 0.4556\nsamples = 94\nvalue = [61, 33]"] ;
420 -> 421 ;
422 [label="gini = 0.0\nsamples = 7\nvalue = [7, 0]"] ;
420 -> 422 ;
423 [label="gini = 0.0\nsamples = 3\nvalue = [0, 3]"] ;
419 -> 423 ;
424 [label="gini = 0.4989\nsamples = 86\nvalue = [41, 45]"] ;
418 -> 424 ;
425 [label="gini = 0.0\nsamples = 9\nvalue = [0, 9]"] ;
417 -> 425 ;
426 [label="X[0] <= 0.2123\ngini = 0.4784\nsamples = 101\nvalue = [40, 61]"] ;
386 -> 426 ;
427 [label="gini = 0.3403\nsamples = 23\nvalue = [18, 5]"] ;
426 -> 427 ;
428 [label="gini = 0.405\nsamples = 78\nvalue = [22, 56]"] ;
426 -> 428 ;
429 [label="X[2] <= 0.083\ngini = 0.0422\nsamples = 278\nvalue = [6, 272]"] ;
1 -> 429 ;
430 [label="gini = 0.4444\nsamples = 18\nvalue = [6, 12]"] ;
429 -> 430 ;
431 [label="gini = 0.0\nsamples = 260\nvalue = [0, 260]"] ;
429 -> 431 ;
432 [label="X[1] <= 0.7667\ngini = 0.4956\nsamples = 13538\nvalue = [7404, 6134]"] ;
0 -> 432 [labeldistance=2.5, labelangle=-45, headlabel="False"] ;
433 [label="X[2] <= 0.051\ngini = 0.4476\nsamples = 9527\nvalue = [6306, 3221]"] ;
432 -> 433 ;
434 [label="X[1] <= 0.5\ngini = 0.4246\nsamples = 9072\nvalue = [6297, 2775]"] ;
433 -> 434 ;
435 [label="X[4] <= 0.4745\ngini = 0.1913\nsamples = 1494\nvalue = [1334, 160]"] ;
434 -> 435 ;
436 [label="X[47] <= 0.5\ngini = 0.1519\nsamples = 1208\nvalue = [1108, 100]"] ;
435 -> 436 ;
437 [label="X[0] <= 0.2671\ngini = 0.1481\nsamples = 1204\nvalue = [1107, 97]"] ;
436 -> 437 ;
438 [label="X[91] <= 0.5\ngini = 0.0648\nsamples = 388\nvalue = [375, 13]"] ;
437 -> 438 ;
439 [label="X[69] <= 0.5\ngini = 0.0602\nsamples = 386\nvalue = [374, 12]"] ;
438 -> 439 ;
440 [label="X[48] <= 0.5\ngini = 0.0559\nsamples = 382\nvalue = [371, 11]"] ;
439 -> 440 ;
441 [label="X[10] <= 0.5\ngini = 0.0442\nsamples = 354\nvalue = [346, 8]"] ;
440 -> 441 ;
442 [label="X[4] <= 0.4439\ngini = 0.0393\nsamples = 349\nvalue = [342, 7]"] ;
441 -> 442 ;
443 [label="X[93] <= 0.5\ngini = 0.0298\nsamples = 331\nvalue = [326, 5]"] ;
442 -> 443 ;
444 [label="X[35] <= 0.5\ngini = 0.0242\nsamples = 326\nvalue = [322, 4]"] ;
443 -> 444 ;
445 [label="X[1] <= 0.4333\ngini = 0.0187\nsamples = 318\nvalue = [315, 3]"] ;
444 -> 445 ;
446 [label="X[9] <= 0.5\ngini = 0.0069\nsamples = 287\nvalue = [286, 1]"] ;
445 -> 446 ;
447 [label="gini = 0.0\nsamples = 265\nvalue = [265, 0]"] ;
446 -> 447 ;
448 [label="gini = 0.0868\nsamples = 22\nvalue = [21, 1]"] ;
446 -> 448 ;
449 [label="gini = 0.1207\nsamples = 31\nvalue = [29, 2]"] ;
445 -> 449 ;
450 [label="gini = 0.2188\nsamples = 8\nvalue = [7, 1]"] ;
444 -> 450 ;
451 [label="gini = 0.32\nsamples = 5\nvalue = [4, 1]"] ;
443 -> 451 ;
452 [label="gini = 0.1975\nsamples = 18\nvalue = [16, 2]"] ;
442 -> 452 ;
453 [label="gini = 0.32\nsamples = 5\nvalue = [4, 1]"] ;
441 -> 453 ;
454 [label="gini = 0.1913\nsamples = 28\nvalue = [25, 3]"] ;
440 -> 454 ;
455 [label="gini = 0.375\nsamples = 4\nvalue = [3, 1]"] ;
439 -> 455 ;
456 [label="gini = 0.5\nsamples = 2\nvalue = [1, 1]"] ;
438 -> 456 ;
457 [label="X[1] <= 0.3\ngini = 0.1847\nsamples = 816\nvalue = [732, 84]"] ;
437 -> 457 ;
458 [label="X[102] <= 0.5\ngini = 0.1119\nsamples = 454\nvalue = [427, 27]"] ;
457 -> 458 ;
459 [label="X[5] <= 0.5\ngini = 0.1082\nsamples = 453\nvalue = [427, 26]"] ;
458 -> 459 ;
460 [label="X[38] <= 0.5\ngini = 0.1047\nsamples = 451\nvalue = [426, 25]"] ;
459 -> 460 ;
461 [label="X[101] <= 0.5\ngini = 0.0962\nsamples = 434\nvalue = [412, 22]"] ;
460 -> 461 ;
462 [label="X[93] <= 0.5\ngini = 0.0927\nsamples = 431\nvalue = [410, 21]"] ;
461 -> 462 ;
463 [label="X[1] <= 0.1667\ngini = 0.0893\nsamples = 427\nvalue = [407, 20]"] ;
462 -> 463 ;
464 [label="X[2] <= 0.0245\ngini = 0.031\nsamples = 127\nvalue = [125, 2]"] ;
463 -> 464 ;
465 [label="X[37] <= 0.5\ngini = 0.0161\nsamples = 123\nvalue = [122, 1]"] ;
464 -> 465 ;
466 [label="gini = 0.0\nsamples = 105\nvalue = [105, 0]"] ;
465 -> 466 ;
467 [label="gini = 0.1049\nsamples = 18\nvalue = [17, 1]"] ;
465 -> 467 ;
468 [label="gini = 0.375\nsamples = 4\nvalue = [3, 1]"] ;
464 -> 468 ;
469 [label="X[8] <= 0.5\ngini = 0.1128\nsamples = 300\nvalue = [282, 18]"] ;
463 -> 469 ;
470 [label="X[83] <= 0.5\ngini = 0.1079\nsamples = 297\nvalue = [280, 17]"] ;
469 -> 470 ;
471 [label="X[4] <= 0.4031\ngini = 0.1029\nsamples = 294\nvalue = [278, 16]"] ;
470 -> 471 ;
472 [label="X[46] <= 0.5\ngini = 0.0865\nsamples = 265\nvalue = [253, 12]"] ;
471 -> 472 ;
473 [label="X[4] <= 0.3878\ngini = 0.0759\nsamples = 253\nvalue = [243, 10]"] ;
472 -> 473 ;
474 [label="gini = 0.0\nsamples = 68\nvalue = [68, 0]"] ;
473 -> 474 ;
475 [label="X[9] <= 0.5\ngini = 0.1023\nsamples = 185\nvalue = [175, 10]"] ;
473 -> 475 ;
476 [label="X[2] <= 0.0303\ngini = 0.0822\nsamples = 163\nvalue = [156, 7]"] ;
475 -> 476 ;
477 [label="X[3] <= 0.4016\ngini = 0.0731\nsamples = 158\nvalue = [152, 6]"] ;
476 -> 477 ;
478 [label="X[39] <= 0.5\ngini = 0.0632\nsamples = 153\nvalue = [148, 5]"] ;
477 -> 478 ;
479 [label="X[18] <= 0.5\ngini = 0.0533\nsamples = 146\nvalue = [142, 4]"] ;
478 -> 479 ;
480 [label="gini = 0.0222\nsamples = 89\nvalue = [88, 1]"] ;
479 -> 480 ;
481 [label="gini = 0.0997\nsamples = 57\nvalue = [54, 3]"] ;
479 -> 481 ;
482 [label="gini = 0.2449\nsamples = 7\nvalue = [6, 1]"] ;
478 -> 482 ;
483 [label="gini = 0.32\nsamples = 5\nvalue = [4, 1]"] ;
477 -> 483 ;
484 [label="gini = 0.32\nsamples = 5\nvalue = [4, 1]"] ;
476 -> 484 ;
485 [label="gini = 0.2355\nsamples = 22\nvalue = [19, 3]"] ;
475 -> 485 ;
486 [label="gini = 0.2778\nsamples = 12\nvalue = [10, 2]"] ;
472 -> 486 ;
487 [label="gini = 0.2378\nsamples = 29\nvalue = [25, 4]"] ;
471 -> 487 ;
488 [label="gini = 0.4444\nsamples = 3\nvalue = [2, 1]"] ;
470 -> 488 ;
489 [label="gini = 0.4444\nsamples = 3\nvalue = [2, 1]"] ;
469 -> 489 ;
490 [label="gini = 0.375\nsamples = 4\nvalue = [3, 1]"] ;
462 -> 490 ;
491 [label="gini = 0.4444\nsamples = 3\nvalue = [2, 1]"] ;
461 -> 491 ;
492 [label="gini = 0.2907\nsamples = 17\nvalue = [14, 3]"] ;
460 -> 492 ;
493 [label="gini = 0.5\nsamples = 2\nvalue = [1, 1]"] ;
459 -> 493 ;
494 [label="gini = 0.0\nsamples = 1\nvalue = [0, 1]"] ;
458 -> 494 ;
495 [label="X[3] <= 0.4163\ngini = 0.2653\nsamples = 362\nvalue = [305, 57]"] ;
457 -> 495 ;
496 [label="X[56] <= 0.5\ngini = 0.2506\nsamples = 354\nvalue = [302, 52]"] ;
495 -> 496 ;
497 [label="X[52] <= 0.5\ngini = 0.2437\nsamples = 352\nvalue = [302, 50]"] ;
496 -> 497 ;
498 [label="X[2] <= 0.0302\ngini = 0.2402\nsamples = 351\nvalue = [302, 49]"] ;
497 -> 498 ;
499 [label="X[0] <= 0.6918\ngini = 0.2297\nsamples = 340\nvalue = [295, 45]"] ;
498 -> 499 ;
500 [label="X[44] <= 0.5\ngini = 0.2436\nsamples = 317\nvalue = [272, 45]"] ;
499 -> 500 ;
501 [label="X[1] <= 0.4333\ngini = 0.2397\nsamples = 316\nvalue = [272, 44]"] ;
500 -> 501 ;
502 [label="X[66] <= 0.5\ngini = 0.2228\nsamples = 274\nvalue = [239, 35]"] ;
501 -> 502 ;
503 [label="X[9] <= 0.5\ngini = 0.2188\nsamples = 272\nvalue = [238, 34]"] ;
502 -> 503 ;
504 [label="X[0] <= 0.637\ngini = 0.2339\nsamples = 244\nvalue = [211, 33]"] ;
503 -> 504 ;
505 [label="X[38] <= 0.5\ngini = 0.2196\nsamples = 231\nvalue = [202, 29]"] ;
504 -> 505 ;
506 [label="X[0] <= 0.5685\ngini = 0.2068\nsamples = 222\nvalue = [196, 26]"] ;
505 -> 506 ;
507 [label="X[37] <= 0.5\ngini = 0.1892\nsamples = 189\nvalue = [169, 20]"] ;
506 -> 507 ;
508 [label="X[48] <= 0.5\ngini = 0.1477\nsamples = 137\nvalue = [126, 11]"] ;
507 -> 508 ;
509 [label="X[0] <= 0.4178\ngini = 0.1118\nsamples = 101\nvalue = [95, 6]"] ;
508 -> 509 ;
510 [label="gini = 0.18\nsamples = 50\nvalue = [45, 5]"] ;
509 -> 510 ;
511 [label="gini = 0.0384\nsamples = 51\nvalue = [50, 1]"] ;
509 -> 511 ;
512 [label="gini = 0.2392\nsamples = 36\nvalue = [31, 5]"] ;
508 -> 512 ;
513 [label="gini = 0.2862\nsamples = 52\nvalue = [43, 9]"] ;
507 -> 513 ;
514 [label="gini = 0.2975\nsamples = 33\nvalue = [27, 6]"] ;
506 -> 514 ;
515 [label="gini = 0.4444\nsamples = 9\nvalue = [6, 3]"] ;
505 -> 515 ;
516 [label="gini = 0.426\nsamples = 13\nvalue = [9, 4]"] ;
504 -> 516 ;
517 [label="gini = 0.0689\nsamples = 28\nvalue = [27, 1]"] ;
503 -> 517 ;
518 [label="gini = 0.5\nsamples = 2\nvalue = [1, 1]"] ;
502 -> 518 ;
519 [label="gini = 0.3367\nsamples = 42\nvalue = [33, 9]"] ;
501 -> 519 ;
520 [label="gini = 0.0\nsamples = 1\nvalue = [0, 1]"] ;
500 -> 520 ;
521 [label="gini = 0.0\nsamples = 23\nvalue = [23, 0]"] ;
499 -> 521 ;
522 [label="gini = 0.4628\nsamples = 11\nvalue = [7, 4]"] ;
498 -> 522 ;
523 [label="gini = 0.0\nsamples = 1\nvalue = [0, 1]"] ;
497 -> 523 ;
524 [label="gini = 0.0\nsamples = 2\nvalue = [0, 2]"] ;
496 -> 524 ;
525 [label="gini = 0.4688\nsamples = 8\nvalue = [3, 5]"] ;
495 -> 525 ;
526 [label="gini = 0.375\nsamples = 4\nvalue = [1, 3]"] ;
436 -> 526 ;
527 [label="X[38] <= 0.5\ngini = 0.3316\nsamples = 286\nvalue = [226, 60]"] ;
435 -> 527 ;
528 [label="X[93] <= 0.5\ngini = 0.2912\nsamples = 260\nvalue = [214, 46]"] ;
527 -> 528 ;
529 [label="X[50] <= 0.5\ngini = 0.2795\nsamples = 256\nvalue = [213, 43]"] ;
528 -> 529 ;
530 [label="X[48] <= 0.5\ngini = 0.2752\nsamples = 255\nvalue = [213, 42]"] ;
529 -> 530 ;
531 [label="X[0] <= 0.2808\ngini = 0.2398\nsamples = 201\nvalue = [173, 28]"] ;
530 -> 531 ;
532 [label="gini = 0.1472\nsamples = 75\nvalue = [69, 6]"] ;
531 -> 532 ;
533 [label="X[0] <= 0.5\ngini = 0.2882\nsamples = 126\nvalue = [104, 22]"] ;
531 -> 533 ;
534 [label="gini = 0.3582\nsamples = 77\nvalue = [59, 18]"] ;
533 -> 534 ;
535 [label="gini = 0.1499\nsamples = 49\nvalue = [45, 4]"] ;
533 -> 535 ;
536 [label="gini = 0.3841\nsamples = 54\nvalue = [40, 14]"] ;
530 -> 536 ;
537 [label="gini = 0.0\nsamples = 1\nvalue = [0, 1]"] ;
529 -> 537 ;
538 [label="gini = 0.375\nsamples = 4\nvalue = [1, 3]"] ;
528 -> 538 ;
539 [label="gini = 0.497\nsamples = 26\nvalue = [12, 14]"] ;
527 -> 539 ;
540 [label="X[3] <= 0.4092\ngini = 0.452\nsamples = 7578\nvalue = [4963, 2615]"] ;
434 -> 540 ;
541 [label="X[0] <= 0.226\ngini = 0.4407\nsamples = 7284\nvalue = [4896, 2388]"] ;
540 -> 541 ;
542 [label="X[0] <= 0.1027\ngini = 0.3245\nsamples = 2002\nvalue = [1594, 408]"] ;
541 -> 542 ;
543 [label="X[2] <= 0.0408\ngini = 0.0944\nsamples = 302\nvalue = [287, 15]"] ;
542 -> 543 ;
544 [label="X[4] <= 0.5459\ngini = 0.0887\nsamples = 301\nvalue = [287, 14]"] ;
543 -> 544 ;
545 [label="X[44] <= 0.5\ngini = 0.0691\nsamples = 279\nvalue = [269, 10]"] ;
544 -> 545 ;
546 [label="X[55] <= 0.5\ngini = 0.0573\nsamples = 271\nvalue = [263, 8]"] ;
545 -> 546 ;
547 [label="X[9] <= 0.5\ngini = 0.0511\nsamples = 267\nvalue = [260, 7]"] ;
546 -> 547 ;
548 [label="X[39] <= 0.5\ngini = 0.0453\nsamples = 259\nvalue = [253, 6]"] ;
547 -> 548 ;
549 [label="X[48] <= 0.5\ngini = 0.039\nsamples = 251\nvalue = [246, 5]"] ;
548 -> 549 ;
550 [label="X[35] <= 0.5\ngini = 0.0326\nsamples = 241\nvalue = [237, 4]"] ;
549 -> 550 ;
551 [label="X[54] <= 0.5\ngini = 0.0193\nsamples = 205\nvalue = [203, 2]"] ;
550 -> 551 ;
552 [label="gini = 0.0\nsamples = 177\nvalue = [177, 0]"] ;
551 -> 552 ;
553 [label="gini = 0.1327\nsamples = 28\nvalue = [26, 2]"] ;
551 -> 553 ;
554 [label="gini = 0.1049\nsamples = 36\nvalue = [34, 2]"] ;
550 -> 554 ;
555 [label="gini = 0.18\nsamples = 10\nvalue = [9, 1]"] ;
549 -> 555 ;
556 [label="gini = 0.2188\nsamples = 8\nvalue = [7, 1]"] ;
548 -> 556 ;
557 [label="gini = 0.2188\nsamples = 8\nvalue = [7, 1]"] ;
547 -> 557 ;
558 [label="gini = 0.375\nsamples = 4\nvalue = [3, 1]"] ;
546 -> 558 ;
559 [label="gini = 0.375\nsamples = 8\nvalue = [6, 2]"] ;
545 -> 559 ;
560 [label="gini = 0.2975\nsamples = 22\nvalue = [18, 4]"] ;
544 -> 560 ;
561 [label="gini = 0.0\nsamples = 1\nvalue = [0, 1]"] ;
543 -> 561 ;
562 [label="X[1] <= 0.5667\ngini = 0.3555\nsamples = 1700\nvalue = [1307, 393]"] ;
542 -> 562 ;
563 [label="X[4] <= 0.4031\ngini = 0.3026\nsamples = 958\nvalue = [780, 178]"] ;
562 -> 563 ;
564 [label="X[64] <= 0.5\ngini = 0.2472\nsamples = 609\nvalue = [521, 88]"] ;
563 -> 564 ;
565 [label="X[4] <= 0.3724\ngini = 0.2452\nsamples = 608\nvalue = [521, 87]"] ;
564 -> 565 ;
566 [label="gini = 0.0768\nsamples = 75\nvalue = [72, 3]"] ;
565 -> 566 ;
567 [label="X[101] <= 0.5\ngini = 0.2655\nsamples = 533\nvalue = [449, 84]"] ;
565 -> 567 ;
568 [label="X[59] <= 0.5\ngini = 0.2633\nsamples = 532\nvalue = [449, 83]"] ;
567 -> 568 ;
569 [label="gini = 0.1123\nsamples = 67\nvalue = [63, 4]"] ;
568 -> 569 ;
570 [label="X[8] <= 0.5\ngini = 0.2821\nsamples = 465\nvalue = [386, 79]"] ;
568 -> 570 ;
571 [label="X[54] <= 0.5\ngini = 0.2778\nsamples = 462\nvalue = [385, 77]"] ;
570 -> 571 ;
572 [label="X[66] <= 0.5\ngini = 0.2619\nsamples = 426\nvalue = [360, 66]"] ;
571 -> 572 ;
573 [label="X[45] <= 0.5\ngini = 0.2591\nsamples = 425\nvalue = [360, 65]"] ;
572 -> 573 ;
574 [label="X[42] <= 0.5\ngini = 0.2488\nsamples = 412\nvalue = [352, 60]"] ;
573 -> 574 ;
575 [label="X[6] <= 0.5\ngini = 0.2604\nsamples = 390\nvalue = [330, 60]"] ;
574 -> 575 ;
576 [label="X[49] <= 0.5\ngini = 0.2694\nsamples = 374\nvalue = [314, 60]"] ;
575 -> 576 ;
577 [label="gini = 0.0\nsamples = 11\nvalue = [11, 0]"] ;
576 -> 577 ;
578 [label="X[10] <= 0.5\ngini = 0.2759\nsamples = 363\nvalue = [303, 60]"] ;
576 -> 578 ;
579 [label="X[0] <= 0.1712\ngini = 0.2715\nsamples = 358\nvalue = [300, 58]"] ;
578 -> 579 ;
580 [label="X[41] <= 0.5\ngini = 0.2317\nsamples = 172\nvalue = [149, 23]"] ;
579 -> 580 ;
581 [label="X[0] <= 0.1575\ngini = 0.256\nsamples = 146\nvalue = [124, 22]"] ;
580 -> 581 ;
582 [label="X[0] <= 0.1438\ngini = 0.2921\nsamples = 107\nvalue = [88, 19]"] ;
581 -> 582 ;
583 [label="gini = 0.2503\nsamples = 75\nvalue = [64, 11]"] ;
582 -> 583 ;
584 [label="gini = 0.375\nsamples = 32\nvalue = [24, 8]"] ;
582 -> 584 ;
585 [label="gini = 0.142\nsamples = 39\nvalue = [36, 3]"] ;
581 -> 585 ;
586 [label="gini = 0.074\nsamples = 26\nvalue = [25, 1]"] ;
580 -> 586 ;
587 [label="X[2] <= 0.0326\ngini = 0.3055\nsamples = 186\nvalue = [151, 35]"] ;
579 -> 587 ;
588 [label="X[2] <= 0.0297\ngini = 0.3228\nsamples = 173\nvalue = [138, 35]"] ;
587 -> 588 ;
589 [label="X[0] <= 0.1986\ngini = 0.3115\nsamples = 171\nvalue = [138, 33]"] ;
588 -> 589 ;
590 [label="gini = 0.382\nsamples = 70\nvalue = [52, 18]"] ;
589 -> 590 ;
591 [label="X[46] <= 0.5\ngini = 0.2529\nsamples = 101\nvalue = [86, 15]"] ;
589 -> 591 ;
592 [label="gini = 0.2125\nsamples = 91\nvalue = [80, 11]"] ;
591 -> 592 ;
593 [label="gini = 0.48\nsamples = 10\nvalue = [6, 4]"] ;
591 -> 593 ;
594 [label="gini = 0.0\nsamples = 2\nvalue = [0, 2]"] ;
588 -> 594 ;
595 [label="gini = 0.0\nsamples = 13\nvalue = [13, 0]"] ;
587 -> 595 ;
596 [label="gini = 0.48\nsamples = 5\nvalue = [3, 2]"] ;
578 -> 596 ;
597 [label="gini = 0.0\nsamples = 16\nvalue = [16, 0]"] ;
575 -> 597 ;
598 [label="gini = 0.0\nsamples = 22\nvalue = [22, 0]"] ;
574 -> 598 ;
599 [label="gini = 0.4734\nsamples = 13\nvalue = [8, 5]"] ;
573 -> 599 ;
600 [label="gini = 0.0\nsamples = 1\nvalue = [0, 1]"] ;
572 -> 600 ;
601 [label="gini = 0.4244\nsamples = 36\nvalue = [25, 11]"] ;
571 -> 601 ;
602 [label="gini = 0.4444\nsamples = 3\nvalue = [1, 2]"] ;
570 -> 602 ;
603 [label="gini = 0.0\nsamples = 1\nvalue = [0, 1]"] ;
567 -> 603 ;
604 [label="gini = 0.0\nsamples = 1\nvalue = [0, 1]"] ;
564 -> 604 ;
605 [label="X[47] <= 0.5\ngini = 0.3828\nsamples = 349\nvalue = [259, 90]"] ;
563 -> 605 ;
606 [label="X[0] <= 0.1849\ngini = 0.3728\nsamples = 343\nvalue = [258, 85]"] ;
605 -> 606 ;
607 [label="X[2] <= 0.0416\ngini = 0.3096\nsamples = 188\nvalue = [152, 36]"] ;
606 -> 607 ;
608 [label="X[35] <= 0.5\ngini = 0.2944\nsamples = 184\nvalue = [151, 33]"] ;
607 -> 608 ;
609 [label="X[38] <= 0.5\ngini = 0.2803\nsamples = 178\nvalue = [148, 30]"] ;
608 -> 609 ;
610 [label="X[45] <= 0.5\ngini = 0.255\nsamples = 160\nvalue = [136, 24]"] ;
609 -> 610 ;
611 [label="X[4] <= 0.7296\ngini = 0.2423\nsamples = 156\nvalue = [134, 22]"] ;
610 -> 611 ;
612 [label="X[4] <= 0.4235\ngini = 0.2238\nsamples = 148\nvalue = [129, 19]"] ;
611 -> 612 ;
613 [label="gini = 0.48\nsamples = 5\nvalue = [3, 2]"] ;
612 -> 613 ;
614 [label="X[9] <= 0.5\ngini = 0.2095\nsamples = 143\nvalue = [126, 17]"] ;
612 -> 614 ;
615 [label="X[0] <= 0.1575\ngini = 0.1825\nsamples = 128\nvalue = [115, 13]"] ;
614 -> 615 ;
616 [label="gini = 0.1292\nsamples = 72\nvalue = [67, 5]"] ;
615 -> 616 ;
617 [label="gini = 0.2449\nsamples = 56\nvalue = [48, 8]"] ;
615 -> 617 ;
618 [label="gini = 0.3911\nsamples = 15\nvalue = [11, 4]"] ;
614 -> 618 ;
619 [label="gini = 0.4688\nsamples = 8\nvalue = [5, 3]"] ;
611 -> 619 ;
620 [label="gini = 0.5\nsamples = 4\nvalue = [2, 2]"] ;
610 -> 620 ;
621 [label="gini = 0.4444\nsamples = 18\nvalue = [12, 6]"] ;
609 -> 621 ;
622 [label="gini = 0.5\nsamples = 6\nvalue = [3, 3]"] ;
608 -> 622 ;
623 [label="gini = 0.375\nsamples = 4\nvalue = [1, 3]"] ;
607 -> 623 ;
624 [label="X[46] <= 0.5\ngini = 0.4324\nsamples = 155\nvalue = [106, 49]"] ;
606 -> 624 ;
625 [label="X[100] <= 0.5\ngini = 0.4045\nsamples = 135\nvalue = [97, 38]"] ;
624 -> 625 ;
626 [label="gini = 0.0\nsamples = 2\nvalue = [0, 2]"] ;
625 -> 626 ;
627 [label="X[9] <= 0.5\ngini = 0.3948\nsamples = 133\nvalue = [97, 36]"] ;
625 -> 627 ;
628 [label="X[8] <= 0.5\ngini = 0.4193\nsamples = 117\nvalue = [82, 35]"] ;
627 -> 628 ;
629 [label="X[7] <= 0.5\ngini = 0.4318\nsamples = 111\nvalue = [76, 35]"] ;
628 -> 629 ;
630 [label="gini = 0.4978\nsamples = 15\nvalue = [7, 8]"] ;
629 -> 630 ;
631 [label="gini = 0.4043\nsamples = 96\nvalue = [69, 27]"] ;
629 -> 631 ;
632 [label="gini = 0.0\nsamples = 6\nvalue = [6, 0]"] ;
628 -> 632 ;
633 [label="gini = 0.1172\nsamples = 16\nvalue = [15, 1]"] ;
627 -> 633 ;
634 [label="gini = 0.495\nsamples = 20\nvalue = [9, 11]"] ;
624 -> 634 ;
635 [label="gini = 0.2778\nsamples = 6\nvalue = [1, 5]"] ;
605 -> 635 ;
636 [label="X[0] <= 0.1438\ngini = 0.4116\nsamples = 742\nvalue = [527, 215]"] ;
562 -> 636 ;
637 [label="X[8] <= 0.5\ngini = 0.3299\nsamples = 192\nvalue = [152, 40]"] ;
636 -> 637 ;
638 [label="X[49] <= 0.5\ngini = 0.32\nsamples = 190\nvalue = [152, 38]"] ;
637 -> 638 ;
639 [label="gini = 0.4558\nsamples = 37\nvalue = [24, 13]"] ;
638 -> 639 ;
640 [label="X[44] <= 0.5\ngini = 0.2734\nsamples = 153\nvalue = [128, 25]"] ;
638 -> 640 ;
641 [label="X[47] <= 0.5\ngini = 0.2491\nsamples = 144\nvalue = [123, 21]"] ;
640 -> 641 ;
642 [label="X[40] <= 0.5\ngini = 0.2297\nsamples = 136\nvalue = [118, 18]"] ;
641 -> 642 ;
643 [label="X[6] <= 0.5\ngini = 0.2144\nsamples = 131\nvalue = [115, 16]"] ;
642 -> 643 ;
644 [label="X[38] <= 0.5\ngini = 0.1975\nsamples = 126\nvalue = [112, 14]"] ;
643 -> 644 ;
645 [label="X[1] <= 0.6333\ngini = 0.168\nsamples = 108\nvalue = [98, 10]"] ;
644 -> 645 ;
646 [label="gini = 0.1271\nsamples = 88\nvalue = [82, 6]"] ;
645 -> 646 ;
647 [label="gini = 0.32\nsamples = 20\nvalue = [16, 4]"] ;
645 -> 647 ;
648 [label="gini = 0.3457\nsamples = 18\nvalue = [14, 4]"] ;
644 -> 648 ;
649 [label="gini = 0.48\nsamples = 5\nvalue = [3, 2]"] ;
643 -> 649 ;
650 [label="gini = 0.48\nsamples = 5\nvalue = [3, 2]"] ;
642 -> 650 ;
651 [label="gini = 0.4688\nsamples = 8\nvalue = [5, 3]"] ;
641 -> 651 ;
652 [label="gini = 0.4938\nsamples = 9\nvalue = [5, 4]"] ;
640 -> 652 ;
653 [label="gini = 0.0\nsamples = 2\nvalue = [0, 2]"] ;
637 -> 653 ;
654 [label="X[40] <= 0.5\ngini = 0.4339\nsamples = 550\nvalue = [375, 175]"] ;
636 -> 654 ;
655 [label="X[4] <= 0.1735\ngini = 0.4406\nsamples = 528\nvalue = [355, 173]"] ;
654 -> 655 ;
656 [label="gini = 0.0\nsamples = 8\nvalue = [8, 0]"] ;
655 -> 656 ;
657 [label="X[37] <= 0.5\ngini = 0.444\nsamples = 520\nvalue = [347, 173]"] ;
655 -> 657 ;
658 [label="X[2] <= 0.0312\ngini = 0.4572\nsamples = 410\nvalue = [265, 145]"] ;
657 -> 658 ;
659 [label="X[41] <= 0.5\ngini = 0.4614\nsamples = 396\nvalue = [253, 143]"] ;
658 -> 659 ;
660 [label="X[42] <= 0.5\ngini = 0.4688\nsamples = 352\nvalue = [220, 132]"] ;
659 -> 660 ;
661 [label="X[6] <= 0.5\ngini = 0.4733\nsamples = 333\nvalue = [205, 128]"] ;
660 -> 661 ;
662 [label="X[66] <= 0.5\ngini = 0.4671\nsamples = 304\nvalue = [191, 113]"] ;
661 -> 662 ;
663 [label="X[45] <= 0.5\ngini = 0.4649\nsamples = 302\nvalue = [191, 111]"] ;
662 -> 663 ;
664 [label="X[0] <= 0.1849\ngini = 0.469\nsamples = 293\nvalue = [183, 110]"] ;
663 -> 664 ;
665 [label="X[5] <= 0.5\ngini = 0.4394\nsamples = 135\nvalue = [91, 44]"] ;
664 -> 665 ;
666 [label="X[51] <= 0.5\ngini = 0.4279\nsamples = 129\nvalue = [89, 40]"] ;
665 -> 666 ;
667 [label="X[58] <= 0.5\ngini = 0.4237\nsamples = 128\nvalue = [89, 39]"] ;
666 -> 667 ;
668 [label="X[4] <= 0.352\ngini = 0.4194\nsamples = 127\nvalue = [89, 38]"] ;
667 -> 668 ;
669 [label="gini = 0.2604\nsamples = 13\nvalue = [11, 2]"] ;
668 -> 669 ;
670 [label="X[4] <= 0.3827\ngini = 0.4321\nsamples = 114\nvalue = [78, 36]"] ;
668 -> 670 ;
671 [label="gini = 0.0\nsamples = 4\nvalue = [0, 4]"] ;
670 -> 671 ;
672 [label="X[10] <= 0.5\ngini = 0.4126\nsamples = 110\nvalue = [78, 32]"] ;
670 -> 672 ;
673 [label="X[57] <= 0.5\ngini = 0.4035\nsamples = 107\nvalue = [77, 30]"] ;
672 -> 673 ;
674 [label="X[35] <= 0.5\ngini = 0.4129\nsamples = 103\nvalue = [73, 30]"] ;
673 -> 674 ;
675 [label="gini = 0.3896\nsamples = 83\nvalue = [61, 22]"] ;
674 -> 675 ;
676 [label="gini = 0.48\nsamples = 20\nvalue = [12, 8]"] ;
674 -> 676 ;
677 [label="gini = 0.0\nsamples = 4\nvalue = [4, 0]"] ;
673 -> 677 ;
678 [label="gini = 0.4444\nsamples = 3\nvalue = [1, 2]"] ;
672 -> 678 ;
679 [label="gini = 0.0\nsamples = 1\nvalue = [0, 1]"] ;
667 -> 679 ;
680 [label="gini = 0.0\nsamples = 1\nvalue = [0, 1]"] ;
666 -> 680 ;
681 [label="gini = 0.4444\nsamples = 6\nvalue = [2, 4]"] ;
665 -> 681 ;
682 [label="X[4] <= 0.7347\ngini = 0.4865\nsamples = 158\nvalue = [92, 66]"] ;
664 -> 682 ;
683 [label="X[38] <= 0.5\ngini = 0.4825\nsamples = 155\nvalue = [92, 63]"] ;
682 -> 683 ;
684 [label="X[44] <= 0.5\ngini = 0.4672\nsamples = 121\nvalue = [76, 45]"] ;
683 -> 684 ;
685 [label="X[4] <= 0.2398\ngini = 0.4544\nsamples = 106\nvalue = [69, 37]"] ;
684 -> 685 ;
686 [label="gini = 0.0\nsamples = 2\nvalue = [0, 2]"] ;
685 -> 686 ;
687 [label="X[85] <= 0.5\ngini = 0.4466\nsamples = 104\nvalue = [69, 35]"] ;
685 -> 687 ;
688 [label="X[100] <= 0.5\ngini = 0.4423\nsamples = 103\nvalue = [69, 34]"] ;
687 -> 688 ;
689 [label="gini = 0.1975\nsamples = 9\nvalue = [8, 1]"] ;
688 -> 689 ;
690 [label="gini = 0.4556\nsamples = 94\nvalue = [61, 33]"] ;
688 -> 690 ;
691 [label="gini = 0.0\nsamples = 1\nvalue = [0, 1]"] ;
687 -> 691 ;
692 [label="gini = 0.4978\nsamples = 15\nvalue = [7, 8]"] ;
684 -> 692 ;
693 [label="gini = 0.4983\nsamples = 34\nvalue = [16, 18]"] ;
683 -> 693 ;
694 [label="gini = 0.0\nsamples = 3\nvalue = [0, 3]"] ;
682 -> 694 ;
695 [label="gini = 0.1975\nsamples = 9\nvalue = [8, 1]"] ;
663 -> 695 ;
696 [label="gini = 0.0\nsamples = 2\nvalue = [0, 2]"] ;
662 -> 696 ;
697 [label="gini = 0.4994\nsamples = 29\nvalue = [14, 15]"] ;
661 -> 697 ;
698 [label="gini = 0.3324\nsamples = 19\nvalue = [15, 4]"] ;
660 -> 698 ;
699 [label="gini = 0.375\nsamples = 44\nvalue = [33, 11]"] ;
659 -> 699 ;
700 [label="gini = 0.2449\nsamples = 14\nvalue = [12, 2]"] ;
658 -> 700 ;
701 [label="X[4] <= 0.5663\ngini = 0.3795\nsamples = 110\nvalue = [82, 28]"] ;
657 -> 701 ;
702 [label="gini = 0.4057\nsamples = 99\nvalue = [71, 28]"] ;
701 -> 702 ;
703 [label="gini = 0.0\nsamples = 11\nvalue = [11, 0]"] ;
701 -> 703 ;
704 [label="gini = 0.1653\nsamples = 22\nvalue = [20, 2]"] ;
654 -> 704 ;
705 [label="X[38] <= 0.5\ngini = 0.4687\nsamples = 5282\nvalue = [3302, 1980]"] ;
541 -> 705 ;
706 [label="X[4] <= 0.352\ngini = 0.4534\nsamples = 4542\nvalue = [2964, 1578]"] ;
705 -> 706 ;
707 [label="X[23] <= 0.5\ngini = 0.3032\nsamples = 510\nvalue = [415, 95]"] ;
706 -> 707 ;
708 [label="X[4] <= 0.3418\ngini = 0.4046\nsamples = 206\nvalue = [148, 58]"] ;
707 -> 708 ;
709 [label="X[47] <= 0.5\ngini = 0.364\nsamples = 163\nvalue = [124, 39]"] ;
708 -> 709 ;
710 [label="X[60] <= 0.5\ngini = 0.3465\nsamples = 157\nvalue = [122, 35]"] ;
709 -> 710 ;
711 [label="X[0] <= 0.7603\ngini = 0.2717\nsamples = 111\nvalue = [93, 18]"] ;
710 -> 711 ;
712 [label="X[71] <= 0.5\ngini = 0.2224\nsamples = 102\nvalue = [89, 13]"] ;
711 -> 712 ;
713 [label="X[0] <= 0.5959\ngini = 0.2094\nsamples = 101\nvalue = [89, 12]"] ;
712 -> 713 ;
714 [label="gini = 0.2649\nsamples = 70\nvalue = [59, 11]"] ;
713 -> 714 ;
715 [label="gini = 0.0624\nsamples = 31\nvalue = [30, 1]"] ;
713 -> 715 ;
716 [label="gini = 0.0\nsamples = 1\nvalue = [0, 1]"] ;
712 -> 716 ;
717 [label="gini = 0.4938\nsamples = 9\nvalue = [4, 5]"] ;
711 -> 717 ;
718 [label="gini = 0.466\nsamples = 46\nvalue = [29, 17]"] ;
710 -> 718 ;
719 [label="gini = 0.4444\nsamples = 6\nvalue = [2, 4]"] ;
709 -> 719 ;
720 [label="gini = 0.4932\nsamples = 43\nvalue = [24, 19]"] ;
708 -> 720 ;
721 [label="X[54] <= 0.5\ngini = 0.2138\nsamples = 304\nvalue = [267, 37]"] ;
707 -> 721 ;
722 [label="X[47] <= 0.5\ngini = 0.1374\nsamples = 229\nvalue = [212, 17]"] ;
721 -> 722 ;
723 [label="X[6] <= 0.5\ngini = 0.1239\nsamples = 226\nvalue = [211, 15]"] ;
722 -> 723 ;
724 [label="X[57] <= 0.5\ngini = 0.1049\nsamples = 216\nvalue = [204, 12]"] ;
723 -> 724 ;
725 [label="X[0] <= 0.2397\ngini = 0.092\nsamples = 207\nvalue = [197, 10]"] ;
724 -> 725 ;
726 [label="gini = 0.4444\nsamples = 3\nvalue = [2, 1]"] ;
725 -> 726 ;
727 [label="X[46] <= 0.5\ngini = 0.0843\nsamples = 204\nvalue = [195, 9]"] ;
725 -> 727 ;
728 [label="X[45] <= 0.5\ngini = 0.0564\nsamples = 172\nvalue = [167, 5]"] ;
727 -> 728 ;
729 [label="X[4] <= 0.3418\ngini = 0.0468\nsamples = 167\nvalue = [163, 4]"] ;
728 -> 729 ;
730 [label="X[4] <= 0.102\ngini = 0.015\nsamples = 132\nvalue = [131, 1]"] ;
729 -> 730 ;
731 [label="gini = 0.1327\nsamples = 14\nvalue = [13, 1]"] ;
730 -> 731 ;
732 [label="gini = 0.0\nsamples = 118\nvalue = [118, 0]"] ;
730 -> 732 ;
733 [label="gini = 0.1567\nsamples = 35\nvalue = [32, 3]"] ;
729 -> 733 ;
734 [label="gini = 0.32\nsamples = 5\nvalue = [4, 1]"] ;
728 -> 734 ;
735 [label="gini = 0.2188\nsamples = 32\nvalue = [28, 4]"] ;
727 -> 735 ;
736 [label="gini = 0.3457\nsamples = 9\nvalue = [7, 2]"] ;
724 -> 736 ;
737 [label="gini = 0.42\nsamples = 10\nvalue = [7, 3]"] ;
723 -> 737 ;
738 [label="gini = 0.4444\nsamples = 3\nvalue = [1, 2]"] ;
722 -> 738 ;
739 [label="gini = 0.3911\nsamples = 75\nvalue = [55, 20]"] ;
721 -> 739 ;
740 [label="X[23] <= 0.5\ngini = 0.4651\nsamples = 4032\nvalue = [2549, 1483]"] ;
706 -> 740 ;
741 [label="X[9] <= 0.5\ngini = 0.4902\nsamples = 1697\nvalue = [967, 730]"] ;
740 -> 741 ;
742 [label="X[44] <= 0.5\ngini = 0.4957\nsamples = 1506\nvalue = [823, 683]"] ;
741 -> 742 ;
743 [label="X[2] <= 0.0312\ngini = 0.4919\nsamples = 1368\nvalue = [771, 597]"] ;
742 -> 743 ;
744 [label="X[2] <= 0.0297\ngini = 0.4943\nsamples = 1319\nvalue = [730, 589]"] ;
743 -> 744 ;
745 [label="X[47] <= 0.5\ngini = 0.4929\nsamples = 1305\nvalue = [730, 575]"] ;
744 -> 745 ;
746 [label="X[40] <= 0.5\ngini = 0.4894\nsamples = 1201\nvalue = [688, 513]"] ;
745 -> 746 ;
747 [label="X[3] <= 0.1705\ngini = 0.4917\nsamples = 1155\nvalue = [652, 503]"] ;
746 -> 747 ;
748 [label="X[0] <= 0.363\ngini = 0.4929\nsamples = 1140\nvalue = [638, 502]"] ;
747 -> 748 ;
749 [label="X[42] <= 0.5\ngini = 0.4806\nsamples = 573\nvalue = [343, 230]"] ;
748 -> 749 ;
750 [label="X[8] <= 0.5\ngini = 0.4853\nsamples = 543\nvalue = [318, 225]"] ;
749 -> 750 ;
751 [label="X[49] <= 0.5\ngini = 0.4818\nsamples = 519\nvalue = [309, 210]"] ;
750 -> 751 ;
752 [label="gini = 0.487\nsamples = 31\nvalue = [13, 18]"] ;
751 -> 752 ;
753 [label="X[46] <= 0.5\ngini = 0.4773\nsamples = 488\nvalue = [296, 192]"] ;
751 -> 753 ;
754 [label="X[59] <= 0.5\ngini = 0.4683\nsamples = 401\nvalue = [251, 150]"] ;
753 -> 754 ;
755 [label="gini = 0.4976\nsamples = 43\nvalue = [20, 23]"] ;
754 -> 755 ;
756 [label="X[6] <= 0.5\ngini = 0.4578\nsamples = 358\nvalue = [231, 127]"] ;
754 -> 756 ;
757 [label="X[45] <= 0.5\ngini = 0.4444\nsamples = 309\nvalue = [206, 103]"] ;
756 -> 757 ;
758 [label="X[2] <= 0.012\ngini = 0.4502\nsamples = 298\nvalue = [196, 102]"] ;
757 -> 758 ;
759 [label="X[0] <= 0.2808\ngini = 0.4539\nsamples = 293\nvalue = [191, 102]"] ;
758 -> 759 ;
760 [label="X[91] <= 0.5\ngini = 0.4187\nsamples = 124\nvalue = [87, 37]"] ;
759 -> 760 ;
761 [label="X[93] <= 0.5\ngini = 0.414\nsamples = 123\nvalue = [87, 36]"] ;
760 -> 761 ;
762 [label="X[41] <= 0.5\ngini = 0.4092\nsamples = 122\nvalue = [87, 35]"] ;
761 -> 762 ;
763 [label="X[94] <= 0.5\ngini = 0.3844\nsamples = 104\nvalue = [77, 27]"] ;
762 -> 763 ;
764 [label="X[19] <= 0.5\ngini = 0.3774\nsamples = 103\nvalue = [77, 26]"] ;
763 -> 764 ;
765 [label="gini = 0.3924\nsamples = 97\nvalue = [71, 26]"] ;
764 -> 765 ;
766 [label="gini = 0.0\nsamples = 6\nvalue = [6, 0]"] ;
764 -> 766 ;
767 [label="gini = 0.0\nsamples = 1\nvalue = [0, 1]"] ;
763 -> 767 ;
768 [label="gini = 0.4938\nsamples = 18\nvalue = [10, 8]"] ;
762 -> 768 ;
769 [label="gini = 0.0\nsamples = 1\nvalue = [0, 1]"] ;
761 -> 769 ;
770 [label="gini = 0.0\nsamples = 1\nvalue = [0, 1]"] ;
760 -> 770 ;
771 [label="X[4] <= 0.4337\ngini = 0.4734\nsamples = 169\nvalue = [104, 65]"] ;
759 -> 771 ;
772 [label="gini = 0.4248\nsamples = 98\nvalue = [68, 30]"] ;
771 -> 772 ;
773 [label="gini = 0.4999\nsamples = 71\nvalue = [36, 35]"] ;
771 -> 773 ;
774 [label="gini = 0.0\nsamples = 5\nvalue = [5, 0]"] ;
758 -> 774 ;
775 [label="gini = 0.1653\nsamples = 11\nvalue = [10, 1]"] ;
757 -> 775 ;
776 [label="gini = 0.4998\nsamples = 49\nvalue = [25, 24]"] ;
756 -> 776 ;
777 [label="gini = 0.4994\nsamples = 87\nvalue = [45, 42]"] ;
753 -> 777 ;
778 [label="gini = 0.4688\nsamples = 24\nvalue = [9, 15]"] ;
750 -> 778 ;
779 [label="gini = 0.2778\nsamples = 30\nvalue = [25, 5]"] ;
749 -> 779 ;
780 [label="X[0] <= 0.5822\ngini = 0.4992\nsamples = 567\nvalue = [295, 272]"] ;
748 -> 780 ;
781 [label="X[41] <= 0.5\ngini = 0.5\nsamples = 491\nvalue = [244, 247]"] ;
780 -> 781 ;
782 [label="X[39] <= 0.5\ngini = 0.4993\nsamples = 459\nvalue = [221, 238]"] ;
781 -> 782 ;
783 [label="X[7] <= 0.5\ngini = 0.4981\nsamples = 441\nvalue = [207, 234]"] ;
782 -> 783 ;
784 [label="X[60] <= 0.5\ngini = 0.461\nsamples = 111\nvalue = [40, 71]"] ;
783 -> 784 ;
785 [label="X[4] <= 0.3878\ngini = 0.4699\nsamples = 106\nvalue = [40, 66]"] ;
784 -> 785 ;
786 [label="gini = 0.0\nsamples = 3\nvalue = [0, 3]"] ;
785 -> 786 ;
787 [label="X[4] <= 0.4439\ngini = 0.4751\nsamples = 103\nvalue = [40, 63]"] ;
785 -> 787 ;
788 [label="gini = 0.492\nsamples = 71\nvalue = [31, 40]"] ;
787 -> 788 ;
789 [label="gini = 0.4043\nsamples = 32\nvalue = [9, 23]"] ;
787 -> 789 ;
790 [label="gini = 0.0\nsamples = 5\nvalue = [0, 5]"] ;
784 -> 790 ;
791 [label="X[1] <= 0.6333\ngini = 0.4999\nsamples = 330\nvalue = [167, 163]"] ;
783 -> 791 ;
792 [label="X[57] <= 0.5\ngini = 0.4983\nsamples = 242\nvalue = [114, 128]"] ;
791 -> 792 ;
793 [label="X[0] <= 0.4178\ngini = 0.4995\nsamples = 231\nvalue = [112, 119]"] ;
792 -> 793 ;
794 [label="gini = 0.4951\nsamples = 91\nvalue = [50, 41]"] ;
793 -> 794 ;
795 [label="X[4] <= 0.8265\ngini = 0.4935\nsamples = 140\nvalue = [62, 78]"] ;
793 -> 795 ;
796 [label="X[4] <= 0.7245\ngini = 0.4915\nsamples = 138\nvalue = [60, 78]"] ;
795 -> 796 ;
797 [label="X[4] <= 0.5357\ngini = 0.4938\nsamples = 135\nvalue = [60, 75]"] ;
796 -> 797 ;
798 [label="X[46] <= 0.5\ngini = 0.4861\nsamples = 120\nvalue = [50, 70]"] ;
797 -> 798 ;
799 [label="gini = 0.4651\nsamples = 87\nvalue = [32, 55]"] ;
798 -> 799 ;
800 [label="gini = 0.4959\nsamples = 33\nvalue = [18, 15]"] ;
798 -> 800 ;
801 [label="gini = 0.4444\nsamples = 15\nvalue = [10, 5]"] ;
797 -> 801 ;
802 [label="gini = 0.0\nsamples = 3\nvalue = [0, 3]"] ;
796 -> 802 ;
803 [label="gini = 0.0\nsamples = 2\nvalue = [2, 0]"] ;
795 -> 803 ;
804 [label="gini = 0.2975\nsamples = 11\nvalue = [2, 9]"] ;
792 -> 804 ;
805 [label="gini = 0.4791\nsamples = 88\nvalue = [53, 35]"] ;
791 -> 805 ;
806 [label="gini = 0.3457\nsamples = 18\nvalue = [14, 4]"] ;
782 -> 806 ;
807 [label="gini = 0.4043\nsamples = 32\nvalue = [23, 9]"] ;
781 -> 807 ;
808 [label="gini = 0.4415\nsamples = 76\nvalue = [51, 25]"] ;
780 -> 808 ;
809 [label="gini = 0.1244\nsamples = 15\nvalue = [14, 1]"] ;
747 -> 809 ;
810 [label="gini = 0.3403\nsamples = 46\nvalue = [36, 10]"] ;
746 -> 810 ;
811 [label="X[0] <= 0.2808\ngini = 0.4815\nsamples = 104\nvalue = [42, 62]"] ;
745 -> 811 ;
812 [label="gini = 0.4928\nsamples = 25\nvalue = [14, 11]"] ;
811 -> 812 ;
813 [label="gini = 0.4576\nsamples = 79\nvalue = [28, 51]"] ;
811 -> 813 ;
814 [label="gini = 0.0\nsamples = 14\nvalue = [0, 14]"] ;
744 -> 814 ;
815 [label="gini = 0.2732\nsamples = 49\nvalue = [41, 8]"] ;
743 -> 815 ;
816 [label="X[4] <= 0.4082\ngini = 0.4696\nsamples = 138\nvalue = [52, 86]"] ;
742 -> 816 ;
817 [label="gini = 0.4147\nsamples = 92\nvalue = [27, 65]"] ;
816 -> 817 ;
818 [label="gini = 0.4962\nsamples = 46\nvalue = [25, 21]"] ;
816 -> 818 ;
819 [label="X[47] <= 0.5\ngini = 0.371\nsamples = 191\nvalue = [144, 47]"] ;
741 -> 819 ;
820 [label="X[0] <= 0.5137\ngini = 0.3541\nsamples = 187\nvalue = [144, 43]"] ;
819 -> 820 ;
821 [label="X[4] <= 0.7143\ngini = 0.4019\nsamples = 140\nvalue = [101, 39]"] ;
820 -> 821 ;
822 [label="X[44] <= 0.5\ngini = 0.4308\nsamples = 121\nvalue = [83, 38]"] ;
821 -> 822 ;
823 [label="X[1] <= 0.6333\ngini = 0.4104\nsamples = 111\nvalue = [79, 32]"] ;
822 -> 823 ;
824 [label="gini = 0.3356\nsamples = 75\nvalue = [59, 16]"] ;
823 -> 824 ;
825 [label="gini = 0.4938\nsamples = 36\nvalue = [20, 16]"] ;
823 -> 825 ;
826 [label="gini = 0.48\nsamples = 10\nvalue = [4, 6]"] ;
822 -> 826 ;
827 [label="gini = 0.0997\nsamples = 19\nvalue = [18, 1]"] ;
821 -> 827 ;
828 [label="gini = 0.1557\nsamples = 47\nvalue = [43, 4]"] ;
820 -> 828 ;
829 [label="gini = 0.0\nsamples = 4\nvalue = [0, 4]"] ;
819 -> 829 ;
830 [label="X[5] <= 0.5\ngini = 0.437\nsamples = 2335\nvalue = [1582, 753]"] ;
740 -> 830 ;
831 [label="X[42] <= 0.5\ngini = 0.4291\nsamples = 2249\nvalue = [1548, 701]"] ;
830 -> 831 ;
832 [label="X[0] <= 0.2534\ngini = 0.4379\nsamples = 2097\nvalue = [1418, 679]"] ;
831 -> 832 ;
833 [label="X[4] <= 0.5357\ngini = 0.3141\nsamples = 205\nvalue = [165, 40]"] ;
832 -> 833 ;
834 [label="X[0] <= 0.2397\ngini = 0.2566\nsamples = 172\nvalue = [146, 26]"] ;
833 -> 834 ;
835 [label="gini = 0.3378\nsamples = 79\nvalue = [62, 17]"] ;
834 -> 835 ;
836 [label="gini = 0.1748\nsamples = 93\nvalue = [84, 9]"] ;
834 -> 836 ;
837 [label="gini = 0.4885\nsamples = 33\nvalue = [19, 14]"] ;
833 -> 837 ;
838 [label="X[3] <= 0.351\ngini = 0.4473\nsamples = 1892\nvalue = [1253, 639]"] ;
832 -> 838 ;
839 [label="X[0] <= 0.6096\ngini = 0.4502\nsamples = 1867\nvalue = [1228, 639]"] ;
838 -> 839 ;
840 [label="X[100] <= 0.5\ngini = 0.4564\nsamples = 1751\nvalue = [1134, 617]"] ;
839 -> 840 ;
841 [label="X[63] <= 0.5\ngini = 0.3289\nsamples = 106\nvalue = [84, 22]"] ;
840 -> 841 ;
842 [label="X[82] <= 0.5\ngini = 0.3032\nsamples = 102\nvalue = [83, 19]"] ;
841 -> 842 ;
843 [label="X[102] <= 0.5\ngini = 0.2929\nsamples = 101\nvalue = [83, 18]"] ;
842 -> 843 ;
844 [label="X[0] <= 0.2945\ngini = 0.2822\nsamples = 100\nvalue = [83, 17]"] ;
843 -> 844 ;
845 [label="gini = 0.4132\nsamples = 24\nvalue = [17, 7]"] ;
844 -> 845 ;
846 [label="gini = 0.2285\nsamples = 76\nvalue = [66, 10]"] ;
844 -> 846 ;
847 [label="gini = 0.0\nsamples = 1\nvalue = [0, 1]"] ;
843 -> 847 ;
848 [label="gini = 0.0\nsamples = 1\nvalue = [0, 1]"] ;
842 -> 848 ;
849 [label="gini = 0.375\nsamples = 4\nvalue = [1, 3]"] ;
841 -> 849 ;
850 [label="X[2] <= 0.0445\ngini = 0.4617\nsamples = 1645\nvalue = [1050, 595]"] ;
840 -> 850 ;
851 [label="X[2] <= 0.0423\ngini = 0.4636\nsamples = 1630\nvalue = [1035, 595]"] ;
850 -> 851 ;
852 [label="X[2] <= 0.0312\ngini = 0.4612\nsamples = 1619\nvalue = [1035, 584]"] ;
851 -> 852 ;
853 [label="X[2] <= 0.0299\ngini = 0.4644\nsamples = 1593\nvalue = [1009, 584]"] ;
852 -> 853 ;
854 [label="X[39] <= 0.5\ngini = 0.4615\nsamples = 1578\nvalue = [1008, 570]"] ;
853 -> 854 ;
855 [label="X[4] <= 0.5051\ngini = 0.466\nsamples = 1483\nvalue = [935, 548]"] ;
854 -> 855 ;
856 [label="X[54] <= 0.5\ngini = 0.4594\nsamples = 1284\nvalue = [825, 459]"] ;
855 -> 856 ;
857 [label="X[0] <= 0.4315\ngini = 0.453\nsamples = 1197\nvalue = [782, 415]"] ;
856 -> 857 ;
858 [label="X[10] <= 0.5\ngini = 0.4299\nsamples = 716\nvalue = [492, 224]"] ;
857 -> 858 ;
859 [label="X[55] <= 0.5\ngini = 0.4364\nsamples = 690\nvalue = [468, 222]"] ;
858 -> 859 ;
860 [label="X[4] <= 0.4439\ngini = 0.4388\nsamples = 683\nvalue = [461, 222]"] ;
859 -> 860 ;
861 [label="X[35] <= 0.5\ngini = 0.4236\nsamples = 486\nvalue = [338, 148]"] ;
860 -> 861 ;
862 [label="X[4] <= 0.3673\ngini = 0.416\nsamples = 461\nvalue = [325, 136]"] ;
861 -> 862 ;
863 [label="gini = 0.0\nsamples = 1\nvalue = [0, 1]"] ;
862 -> 863 ;
864 [label="X[40] <= 0.5\ngini = 0.4147\nsamples = 460\nvalue = [325, 135]"] ;
862 -> 864 ;
865 [label="X[45] <= 0.5\ngini = 0.4221\nsamples = 423\nvalue = [295, 128]"] ;
864 -> 865 ;
866 [label="X[0] <= 0.3219\ngini = 0.419\nsamples = 415\nvalue = [291, 124]"] ;
865 -> 866 ;
867 [label="X[4] <= 0.4031\ngini = 0.3887\nsamples = 178\nvalue = [131, 47]"] ;
866 -> 867 ;
868 [label="X[46] <= 0.5\ngini = 0.4045\nsamples = 167\nvalue = [120, 47]"] ;
867 -> 868 ;
869 [label="X[7] <= 0.5\ngini = 0.3846\nsamples = 154\nvalue = [114, 40]"] ;
868 -> 869 ;
870 [label="gini = 0.4753\nsamples = 18\nvalue = [11, 7]"] ;
869 -> 870 ;
871 [label="X[37] <= 0.5\ngini = 0.3675\nsamples = 136\nvalue = [103, 33]"] ;
869 -> 871 ;
872 [label="gini = 0.4038\nsamples = 57\nvalue = [41, 16]"] ;
871 -> 872 ;
873 [label="gini = 0.3378\nsamples = 79\nvalue = [62, 17]"] ;
871 -> 873 ;
874 [label="gini = 0.497\nsamples = 13\nvalue = [6, 7]"] ;
868 -> 874 ;
875 [label="gini = 0.0\nsamples = 11\nvalue = [11, 0]"] ;
867 -> 875 ;
876 [label="X[37] <= 0.5\ngini = 0.4387\nsamples = 237\nvalue = [160, 77]"] ;
866 -> 876 ;
877 [label="X[4] <= 0.4031\ngini = 0.3967\nsamples = 121\nvalue = [88, 33]"] ;
876 -> 877 ;
878 [label="X[0] <= 0.3904\ngini = 0.3704\nsamples = 110\nvalue = [83, 27]"] ;
877 -> 878 ;
879 [label="gini = 0.2941\nsamples = 67\nvalue = [55, 12]"] ;
878 -> 879 ;
880 [label="gini = 0.4543\nsamples = 43\nvalue = [28, 15]"] ;
878 -> 880 ;
881 [label="gini = 0.4959\nsamples = 11\nvalue = [5, 6]"] ;
877 -> 881 ;
882 [label="X[0] <= 0.3904\ngini = 0.4709\nsamples = 116\nvalue = [72, 44]"] ;
876 -> 882 ;
883 [label="gini = 0.4886\nsamples = 73\nvalue = [42, 31]"] ;
882 -> 883 ;
884 [label="gini = 0.4218\nsamples = 43\nvalue = [30, 13]"] ;
882 -> 884 ;
885 [label="gini = 0.5\nsamples = 8\nvalue = [4, 4]"] ;
865 -> 885 ;
886 [label="gini = 0.3068\nsamples = 37\nvalue = [30, 7]"] ;
864 -> 886 ;
887 [label="gini = 0.4992\nsamples = 25\nvalue = [13, 12]"] ;
861 -> 887 ;
888 [label="X[0] <= 0.363\ngini = 0.4691\nsamples = 197\nvalue = [123, 74]"] ;
860 -> 888 ;
889 [label="X[6] <= 0.5\ngini = 0.4412\nsamples = 137\nvalue = [92, 45]"] ;
888 -> 889 ;
890 [label="X[0] <= 0.3082\ngini = 0.4341\nsamples = 135\nvalue = [92, 43]"] ;
889 -> 890 ;
891 [label="gini = 0.4717\nsamples = 84\nvalue = [52, 32]"] ;
890 -> 891 ;
892 [label="gini = 0.3383\nsamples = 51\nvalue = [40, 11]"] ;
890 -> 892 ;
893 [label="gini = 0.0\nsamples = 2\nvalue = [0, 2]"] ;
889 -> 893 ;
894 [label="gini = 0.4994\nsamples = 60\nvalue = [31, 29]"] ;
888 -> 894 ;
895 [label="gini = 0.0\nsamples = 7\nvalue = [7, 0]"] ;
859 -> 895 ;
896 [label="gini = 0.142\nsamples = 26\nvalue = [24, 2]"] ;
858 -> 896 ;
897 [label="X[8] <= 0.5\ngini = 0.4788\nsamples = 481\nvalue = [290, 191]"] ;
857 -> 897 ;
898 [label="X[48] <= 0.5\ngini = 0.4745\nsamples = 465\nvalue = [285, 180]"] ;
897 -> 898 ;
899 [label="X[9] <= 0.5\ngini = 0.4631\nsamples = 390\nvalue = [248, 142]"] ;
898 -> 899 ;
900 [label="X[0] <= 0.4589\ngini = 0.4715\nsamples = 360\nvalue = [223, 137]"] ;
899 -> 900 ;
901 [label="gini = 0.4992\nsamples = 75\nvalue = [39, 36]"] ;
900 -> 901 ;
902 [label="X[49] <= 0.5\ngini = 0.4576\nsamples = 285\nvalue = [184, 101]"] ;
900 -> 902 ;
903 [label="gini = 0.0\nsamples = 4\nvalue = [4, 0]"] ;
902 -> 903 ;
904 [label="X[3] <= 0.1705\ngini = 0.4605\nsamples = 281\nvalue = [180, 101]"] ;
902 -> 904 ;
905 [label="X[7] <= 0.5\ngini = 0.4592\nsamples = 280\nvalue = [180, 100]"] ;
904 -> 905 ;
906 [label="gini = 0.3648\nsamples = 25\nvalue = [19, 6]"] ;
905 -> 906 ;
907 [label="X[0] <= 0.5274\ngini = 0.4655\nsamples = 255\nvalue = [161, 94]"] ;
905 -> 907 ;
908 [label="X[0] <= 0.4726\ngini = 0.4815\nsamples = 156\nvalue = [93, 63]"] ;
907 -> 908 ;
909 [label="gini = 0.42\nsamples = 50\nvalue = [35, 15]"] ;
908 -> 909 ;
910 [label="X[47] <= 0.5\ngini = 0.4956\nsamples = 106\nvalue = [58, 48]"] ;
908 -> 910 ;
911 [label="X[57] <= 0.5\ngini = 0.4933\nsamples = 104\nvalue = [58, 46]"] ;
910 -> 911 ;
912 [label="gini = 0.488\nsamples = 97\nvalue = [56, 41]"] ;
911 -> 912 ;
913 [label="gini = 0.4082\nsamples = 7\nvalue = [2, 5]"] ;
911 -> 913 ;
914 [label="gini = 0.0\nsamples = 2\nvalue = [0, 2]"] ;
910 -> 914 ;
915 [label="gini = 0.4302\nsamples = 99\nvalue = [68, 31]"] ;
907 -> 915 ;
916 [label="gini = 0.0\nsamples = 1\nvalue = [0, 1]"] ;
904 -> 916 ;
917 [label="gini = 0.2778\nsamples = 30\nvalue = [25, 5]"] ;
899 -> 917 ;
918 [label="gini = 0.4999\nsamples = 75\nvalue = [37, 38]"] ;
898 -> 918 ;
919 [label="gini = 0.4297\nsamples = 16\nvalue = [5, 11]"] ;
897 -> 919 ;
920 [label="gini = 0.4999\nsamples = 87\nvalue = [43, 44]"] ;
856 -> 920 ;
921 [label="X[9] <= 0.5\ngini = 0.4944\nsamples = 199\nvalue = [110, 89]"] ;
855 -> 921 ;
922 [label="X[4] <= 0.8776\ngini = 0.4999\nsamples = 154\nvalue = [78, 76]"] ;
921 -> 922 ;
923 [label="X[60] <= 0.5\ngini = 0.4998\nsamples = 149\nvalue = [73, 76]"] ;
922 -> 923 ;
924 [label="X[44] <= 0.5\ngini = 0.4988\nsamples = 145\nvalue = [69, 76]"] ;
923 -> 924 ;
925 [label="X[48] <= 0.5\ngini = 0.497\nsamples = 141\nvalue = [65, 76]"] ;
924 -> 925 ;
926 [label="gini = 0.4831\nsamples = 98\nvalue = [40, 58]"] ;
925 -> 926 ;
927 [label="gini = 0.4867\nsamples = 43\nvalue = [25, 18]"] ;
925 -> 927 ;
928 [label="gini = 0.0\nsamples = 4\nvalue = [4, 0]"] ;
924 -> 928 ;
929 [label="gini = 0.0\nsamples = 4\nvalue = [4, 0]"] ;
923 -> 929 ;
930 [label="gini = 0.0\nsamples = 5\nvalue = [5, 0]"] ;
922 -> 930 ;
931 [label="gini = 0.4109\nsamples = 45\nvalue = [32, 13]"] ;
921 -> 931 ;
932 [label="gini = 0.3559\nsamples = 95\nvalue = [73, 22]"] ;
854 -> 932 ;
933 [label="gini = 0.1244\nsamples = 15\nvalue = [1, 14]"] ;
853 -> 933 ;
934 [label="gini = 0.0\nsamples = 26\nvalue = [26, 0]"] ;
852 -> 934 ;
935 [label="gini = 0.0\nsamples = 11\nvalue = [0, 11]"] ;
851 -> 935 ;
936 [label="gini = 0.0\nsamples = 15\nvalue = [15, 0]"] ;
850 -> 936 ;
937 [label="X[8] <= 0.5\ngini = 0.3074\nsamples = 116\nvalue = [94, 22]"] ;
839 -> 937 ;
938 [label="X[47] <= 0.5\ngini = 0.2757\nsamples = 109\nvalue = [91, 18]"] ;
937 -> 938 ;
939 [label="X[44] <= 0.5\ngini = 0.2563\nsamples = 106\nvalue = [90, 16]"] ;
938 -> 939 ;
940 [label="X[63] <= 0.5\ngini = 0.2349\nsamples = 103\nvalue = [89, 14]"] ;
939 -> 940 ;
941 [label="X[11] <= 0.5\ngini = 0.2224\nsamples = 102\nvalue = [89, 13]"] ;
940 -> 941 ;
942 [label="X[35] <= 0.5\ngini = 0.2094\nsamples = 101\nvalue = [89, 12]"] ;
941 -> 942 ;
943 [label="gini = 0.1748\nsamples = 93\nvalue = [84, 9]"] ;
942 -> 943 ;
944 [label="gini = 0.4688\nsamples = 8\nvalue = [5, 3]"] ;
942 -> 944 ;
945 [label="gini = 0.0\nsamples = 1\nvalue = [0, 1]"] ;
941 -> 945 ;
946 [label="gini = 0.0\nsamples = 1\nvalue = [0, 1]"] ;
940 -> 946 ;
947 [label="gini = 0.4444\nsamples = 3\nvalue = [1, 2]"] ;
939 -> 947 ;
948 [label="gini = 0.4444\nsamples = 3\nvalue = [1, 2]"] ;
938 -> 948 ;
949 [label="gini = 0.4898\nsamples = 7\nvalue = [3, 4]"] ;
937 -> 949 ;
950 [label="gini = 0.0\nsamples = 25\nvalue = [25, 0]"] ;
838 -> 950 ;
951 [label="X[4] <= 0.8163\ngini = 0.2476\nsamples = 152\nvalue = [130, 22]"] ;
831 -> 951 ;
952 [label="X[0] <= 0.6096\ngini = 0.2395\nsamples = 151\nvalue = [130, 21]"] ;
951 -> 952 ;
953 [label="X[66] <= 0.5\ngini = 0.2188\nsamples = 144\nvalue = [126, 18]"] ;
952 -> 953 ;
954 [label="X[84] <= 0.5\ngini = 0.2108\nsamples = 142\nvalue = [125, 17]"] ;
953 -> 954 ;
955 [label="X[102] <= 0.5\ngini = 0.2024\nsamples = 140\nvalue = [124, 16]"] ;
954 -> 955 ;
956 [label="X[49] <= 0.5\ngini = 0.1938\nsamples = 138\nvalue = [123, 15]"] ;
955 -> 956 ;
957 [label="gini = 0.074\nsamples = 26\nvalue = [25, 1]"] ;
956 -> 957 ;
958 [label="X[10] <= 0.5\ngini = 0.2188\nsamples = 112\nvalue = [98, 14]"] ;
956 -> 958 ;
959 [label="X[87] <= 0.5\ngini = 0.2008\nsamples = 106\nvalue = [94, 12]"] ;
958 -> 959 ;
960 [label="X[0] <= 0.5548\ngini = 0.1908\nsamples = 103\nvalue = [92, 11]"] ;
959 -> 960 ;
961 [label="gini = 0.1653\nsamples = 88\nvalue = [80, 8]"] ;
960 -> 961 ;
962 [label="gini = 0.32\nsamples = 15\nvalue = [12, 3]"] ;
960 -> 962 ;
963 [label="gini = 0.4444\nsamples = 3\nvalue = [2, 1]"] ;
959 -> 963 ;
964 [label="gini = 0.4444\nsamples = 6\nvalue = [4, 2]"] ;
958 -> 964 ;
965 [label="gini = 0.5\nsamples = 2\nvalue = [1, 1]"] ;
955 -> 965 ;
966 [label="gini = 0.5\nsamples = 2\nvalue = [1, 1]"] ;
954 -> 966 ;
967 [label="gini = 0.5\nsamples = 2\nvalue = [1, 1]"] ;
953 -> 967 ;
968 [label="gini = 0.4898\nsamples = 7\nvalue = [4, 3]"] ;
952 -> 968 ;
969 [label="gini = 0.0\nsamples = 1\nvalue = [0, 1]"] ;
951 -> 969 ;
970 [label="gini = 0.4781\nsamples = 86\nvalue = [34, 52]"] ;
830 -> 970 ;
971 [label="X[9] <= 0.5\ngini = 0.4963\nsamples = 740\nvalue = [338, 402]"] ;
705 -> 971 ;
972 [label="X[3] <= 0.3573\ngini = 0.4815\nsamples = 609\nvalue = [246, 363]"] ;
971 -> 972 ;
973 [label="X[23] <= 0.5\ngini = 0.4788\nsamples = 602\nvalue = [239, 363]"] ;
972 -> 973 ;
974 [label="X[4] <= 0.4082\ngini = 0.4535\nsamples = 374\nvalue = [130, 244]"] ;
973 -> 974 ;
975 [label="X[49] <= 0.5\ngini = 0.4826\nsamples = 182\nvalue = [74, 108]"] ;
974 -> 975 ;
976 [label="gini = 0.2378\nsamples = 29\nvalue = [4, 25]"] ;
975 -> 976 ;
977 [label="X[0] <= 0.2534\ngini = 0.4964\nsamples = 153\nvalue = [70, 83]"] ;
975 -> 977 ;
978 [label="gini = 0.2188\nsamples = 8\nvalue = [7, 1]"] ;
977 -> 978 ;
979 [label="X[4] <= 0.1276\ngini = 0.4914\nsamples = 145\nvalue = [63, 82]"] ;
977 -> 979 ;
980 [label="gini = 0.0\nsamples = 3\nvalue = [3, 0]"] ;
979 -> 980 ;
981 [label="X[2] <= 0.0312\ngini = 0.488\nsamples = 142\nvalue = [60, 82]"] ;
979 -> 981 ;
982 [label="X[0] <= 0.5\ngini = 0.4849\nsamples = 138\nvalue = [57, 81]"] ;
981 -> 982 ;
983 [label="X[59] <= 0.5\ngini = 0.4952\nsamples = 102\nvalue = [46, 56]"] ;
982 -> 983 ;
984 [label="gini = 0.3457\nsamples = 9\nvalue = [2, 7]"] ;
983 -> 984 ;
985 [label="gini = 0.4986\nsamples = 93\nvalue = [44, 49]"] ;
983 -> 985 ;
986 [label="gini = 0.4244\nsamples = 36\nvalue = [11, 25]"] ;
982 -> 986 ;
987 [label="gini = 0.375\nsamples = 4\nvalue = [3, 1]"] ;
981 -> 987 ;
988 [label="X[56] <= 0.5\ngini = 0.4132\nsamples = 192\nvalue = [56, 136]"] ;
974 -> 988 ;
989 [label="X[0] <= 0.6438\ngini = 0.4036\nsamples = 189\nvalue = [53, 136]"] ;
988 -> 989 ;
990 [label="X[0] <= 0.2397\ngini = 0.3967\nsamples = 187\nvalue = [51, 136]"] ;
989 -> 990 ;
991 [label="gini = 0.142\nsamples = 13\nvalue = [1, 12]"] ;
990 -> 991 ;
992 [label="X[10] <= 0.5\ngini = 0.4096\nsamples = 174\nvalue = [50, 124]"] ;
990 -> 992 ;
993 [label="X[19] <= 0.5\ngini = 0.4038\nsamples = 171\nvalue = [48, 123]"] ;
992 -> 993 ;
994 [label="X[0] <= 0.5411\ngini = 0.4195\nsamples = 147\nvalue = [44, 103]"] ;
993 -> 994 ;
995 [label="X[4] <= 0.4439\ngini = 0.4358\nsamples = 134\nvalue = [43, 91]"] ;
994 -> 995 ;
996 [label="gini = 0.0\nsamples = 6\nvalue = [0, 6]"] ;
995 -> 996 ;
997 [label="X[60] <= 0.5\ngini = 0.4462\nsamples = 128\nvalue = [43, 85]"] ;
995 -> 997 ;
998 [label="X[2] <= 0.0326\ngini = 0.4305\nsamples = 118\nvalue = [37, 81]"] ;
997 -> 998 ;
999 [label="X[6] <= 0.5\ngini = 0.426\nsamples = 117\nvalue = [36, 81]"] ;
998 -> 999 ;
1000 [label="X[4] <= 0.8265\ngini = 0.4157\nsamples = 112\nvalue = [33, 79]"] ;
999 -> 1000 ;
1001 [label="X[4] <= 0.6276\ngini = 0.4244\nsamples = 108\nvalue = [33, 75]"] ;
1000 -> 1001 ;
1002 [label="gini = 0.4069\nsamples = 95\nvalue = [27, 68]"] ;
1001 -> 1002 ;
1003 [label="gini = 0.497\nsamples = 13\nvalue = [6, 7]"] ;
1001 -> 1003 ;
1004 [label="gini = 0.0\nsamples = 4\nvalue = [0, 4]"] ;
1000 -> 1004 ;
1005 [label="gini = 0.48\nsamples = 5\nvalue = [3, 2]"] ;
999 -> 1005 ;
1006 [label="gini = 0.0\nsamples = 1\nvalue = [1, 0]"] ;
998 -> 1006 ;
1007 [label="gini = 0.48\nsamples = 10\nvalue = [6, 4]"] ;
997 -> 1007 ;
1008 [label="gini = 0.142\nsamples = 13\nvalue = [1, 12]"] ;
994 -> 1008 ;
1009 [label="gini = 0.2778\nsamples = 24\nvalue = [4, 20]"] ;
993 -> 1009 ;
1010 [label="gini = 0.4444\nsamples = 3\nvalue = [2, 1]"] ;
992 -> 1010 ;
1011 [label="gini = 0.0\nsamples = 2\nvalue = [2, 0]"] ;
989 -> 1011 ;
1012 [label="gini = 0.0\nsamples = 3\nvalue = [3, 0]"] ;
988 -> 1012 ;
1013 [label="X[6] <= 0.5\ngini = 0.499\nsamples = 228\nvalue = [109, 119]"] ;
973 -> 1013 ;
1014 [label="X[4] <= 0.4847\ngini = 0.4963\nsamples = 210\nvalue = [96, 114]"] ;
1013 -> 1014 ;
1015 [label="X[4] <= 0.1735\ngini = 0.4996\nsamples = 136\nvalue = [70, 66]"] ;
1014 -> 1015 ;
1016 [label="gini = 0.0\nsamples = 3\nvalue = [3, 0]"] ;
1015 -> 1016 ;
1017 [label="X[0] <= 0.5685\ngini = 0.5\nsamples = 133\nvalue = [67, 66]"] ;
1015 -> 1017 ;
1018 [label="X[3] <= 0.1705\ngini = 0.4962\nsamples = 114\nvalue = [62, 52]"] ;
1017 -> 1018 ;
1019 [label="X[59] <= 0.5\ngini = 0.4943\nsamples = 112\nvalue = [62, 50]"] ;
1018 -> 1019 ;
1020 [label="gini = 0.0\nsamples = 2\nvalue = [2, 0]"] ;
1019 -> 1020 ;
1021 [label="X[49] <= 0.5\ngini = 0.4959\nsamples = 110\nvalue = [60, 50]"] ;
1019 -> 1021 ;
1022 [label="gini = 0.4898\nsamples = 21\nvalue = [9, 12]"] ;
1021 -> 1022 ;
1023 [label="gini = 0.4893\nsamples = 89\nvalue = [51, 38]"] ;
1021 -> 1023 ;
1024 [label="gini = 0.0\nsamples = 2\nvalue = [0, 2]"] ;
1018 -> 1024 ;
1025 [label="gini = 0.3878\nsamples = 19\nvalue = [5, 14]"] ;
1017 -> 1025 ;
1026 [label="gini = 0.4558\nsamples = 74\nvalue = [26, 48]"] ;
1014 -> 1026 ;
1027 [label="gini = 0.4012\nsamples = 18\nvalue = [13, 5]"] ;
1013 -> 1027 ;
1028 [label="gini = 0.0\nsamples = 7\nvalue = [7, 0]"] ;
972 -> 1028 ;
1029 [label="X[4] <= 0.8827\ngini = 0.4182\nsamples = 131\nvalue = [92, 39]"] ;
971 -> 1029 ;
1030 [label="X[4] <= 0.3776\ngini = 0.4091\nsamples = 129\nvalue = [92, 37]"] ;
1029 -> 1030 ;
1031 [label="gini = 0.2524\nsamples = 27\nvalue = [23, 4]"] ;
1030 -> 1031 ;
1032 [label="X[0] <= 0.6233\ngini = 0.4377\nsamples = 102\nvalue = [69, 33]"] ;
1030 -> 1032 ;
1033 [label="gini = 0.4157\nsamples = 95\nvalue = [67, 28]"] ;
1032 -> 1033 ;
1034 [label="gini = 0.4082\nsamples = 7\nvalue = [2, 5]"] ;
1032 -> 1034 ;
1035 [label="gini = 0.0\nsamples = 2\nvalue = [0, 2]"] ;
1029 -> 1035 ;
1036 [label="X[3] <= 0.4567\ngini = 0.3519\nsamples = 294\nvalue = [67, 227]"] ;
540 -> 1036 ;
1037 [label="X[51] <= 0.5\ngini = 0.0636\nsamples = 213\nvalue = [7, 206]"] ;
1036 -> 1037 ;
1038 [label="X[0] <= 0.0959\ngini = 0.055\nsamples = 212\nvalue = [6, 206]"] ;
1037 -> 1038 ;
1039 [label="gini = 0.0\nsamples = 1\nvalue = [1, 0]"] ;
1038 -> 1039 ;
1040 [label="X[0] <= 0.1438\ngini = 0.0463\nsamples = 211\nvalue = [5, 206]"] ;
1038 -> 1040 ;
1041 [label="gini = 0.4444\nsamples = 3\nvalue = [1, 2]"] ;
1040 -> 1041 ;
1042 [label="X[42] <= 0.5\ngini = 0.0377\nsamples = 208\nvalue = [4, 204]"] ;
1040 -> 1042 ;
1043 [label="X[6] <= 0.5\ngini = 0.0291\nsamples = 203\nvalue = [3, 200]"] ;
1042 -> 1043 ;
1044 [label="X[41] <= 0.5\ngini = 0.0205\nsamples = 193\nvalue = [2, 191]"] ;
1043 -> 1044 ;
1045 [label="X[0] <= 0.5548\ngini = 0.011\nsamples = 180\nvalue = [1, 179]"] ;
1044 -> 1045 ;
1046 [label="gini = 0.0\nsamples = 160\nvalue = [0, 160]"] ;
1045 -> 1046 ;
1047 [label="gini = 0.095\nsamples = 20\nvalue = [1, 19]"] ;
1045 -> 1047 ;
1048 [label="gini = 0.142\nsamples = 13\nvalue = [1, 12]"] ;
1044 -> 1048 ;
1049 [label="gini = 0.18\nsamples = 10\nvalue = [1, 9]"] ;
1043 -> 1049 ;
1050 [label="gini = 0.32\nsamples = 5\nvalue = [1, 4]"] ;
1042 -> 1050 ;
1051 [label="gini = 0.0\nsamples = 1\nvalue = [1, 0]"] ;
1037 -> 1051 ;
1052 [label="gini = 0.3841\nsamples = 81\nvalue = [60, 21]"] ;
1036 -> 1052 ;
1053 [label="X[51] <= 0.5\ngini = 0.0388\nsamples = 455\nvalue = [9, 446]"] ;
433 -> 1053 ;
1054 [label="X[96] <= 0.5\ngini = 0.0346\nsamples = 454\nvalue = [8, 446]"] ;
1053 -> 1054 ;
1055 [label="X[0] <= 0.5959\ngini = 0.0304\nsamples = 453\nvalue = [7, 446]"] ;
1054 -> 1055 ;
1056 [label="gini = 0.0\nsamples = 397\nvalue = [0, 397]"] ;
1055 -> 1056 ;
1057 [label="gini = 0.2188\nsamples = 56\nvalue = [7, 49]"] ;
1055 -> 1057 ;
1058 [label="gini = 0.0\nsamples = 1\nvalue = [1, 0]"] ;
1054 -> 1058 ;
1059 [label="gini = 0.0\nsamples = 1\nvalue = [1, 0]"] ;
1053 -> 1059 ;
1060 [label="X[2] <= 0.051\ngini = 0.3976\nsamples = 4011\nvalue = [1098, 2913]"] ;
432 -> 1060 ;
1061 [label="X[3] <= 0.4092\ngini = 0.4366\nsamples = 3408\nvalue = [1097, 2311]"] ;
1060 -> 1061 ;
1062 [label="X[0] <= 0.226\ngini = 0.4583\nsamples = 3045\nvalue = [1083, 1962]"] ;
1061 -> 1062 ;
1063 [label="X[0] <= 0.1164\ngini = 0.4992\nsamples = 663\nvalue = [318, 345]"] ;
1062 -> 1063 ;
1064 [label="gini = 0.3714\nsamples = 69\nvalue = [52, 17]"] ;
1063 -> 1064 ;
1065 [label="X[100] <= 0.5\ngini = 0.4946\nsamples = 594\nvalue = [266, 328]"] ;
1063 -> 1065 ;
1066 [label="gini = 0.4628\nsamples = 66\nvalue = [42, 24]"] ;
1065 -> 1066 ;
1067 [label="X[1] <= 0.9\ngini = 0.4885\nsamples = 528\nvalue = [224, 304]"] ;
1065 -> 1067 ;
1068 [label="X[38] <= 0.5\ngini = 0.4944\nsamples = 481\nvalue = [215, 266]"] ;
1067 -> 1068 ;
1069 [label="X[4] <= 0.3622\ngini = 0.4996\nsamples = 358\nvalue = [174, 184]"] ;
1068 -> 1069 ;
1070 [label="gini = 0.4377\nsamples = 34\nvalue = [23, 11]"] ;
1069 -> 1070 ;
1071 [label="X[39] <= 0.5\ngini = 0.4977\nsamples = 324\nvalue = [151, 173]"] ;
1069 -> 1071 ;
1072 [label="X[4] <= 0.6939\ngini = 0.4961\nsamples = 316\nvalue = [144, 172]"] ;
1071 -> 1072 ;
1073 [label="X[3] <= 0.1705\ngini = 0.4977\nsamples = 309\nvalue = [144, 165]"] ;
1072 -> 1073 ;
1074 [label="X[56] <= 0.5\ngini = 0.4969\nsamples = 306\nvalue = [141, 165]"] ;
1073 -> 1074 ;
1075 [label="X[41] <= 0.5\ngini = 0.4982\nsamples = 298\nvalue = [140, 158]"] ;
1074 -> 1075 ;
1076 [label="X[59] <= 0.5\ngini = 0.4975\nsamples = 295\nvalue = [137, 158]"] ;
1075 -> 1076 ;
1077 [label="gini = 0.4444\nsamples = 15\nvalue = [10, 5]"] ;
1076 -> 1077 ;
1078 [label="X[6] <= 0.5\ngini = 0.4957\nsamples = 280\nvalue = [127, 153]"] ;
1076 -> 1078 ;
1079 [label="X[54] <= 0.5\ngini = 0.4912\nsamples = 249\nvalue = [108, 141]"] ;
1078 -> 1079 ;
1080 [label="X[0] <= 0.1986\ngini = 0.495\nsamples = 220\nvalue = [99, 121]"] ;
1079 -> 1080 ;
1081 [label="X[46] <= 0.5\ngini = 0.4863\nsamples = 151\nvalue = [63, 88]"] ;
1080 -> 1081 ;
1082 [label="X[0] <= 0.1575\ngini = 0.4962\nsamples = 103\nvalue = [47, 56]"] ;
1081 -> 1082 ;
1083 [label="gini = 0.4888\nsamples = 40\nvalue = [23, 17]"] ;
1082 -> 1083 ;
1084 [label="gini = 0.4717\nsamples = 63\nvalue = [24, 39]"] ;
1082 -> 1084 ;
1085 [label="gini = 0.4444\nsamples = 48\nvalue = [16, 32]"] ;
1081 -> 1085 ;
1086 [label="gini = 0.4991\nsamples = 69\nvalue = [36, 33]"] ;
1080 -> 1086 ;
1087 [label="gini = 0.4281\nsamples = 29\nvalue = [9, 20]"] ;
1079 -> 1087 ;
1088 [label="gini = 0.4745\nsamples = 31\nvalue = [19, 12]"] ;
1078 -> 1088 ;
1089 [label="gini = 0.0\nsamples = 3\nvalue = [3, 0]"] ;
1075 -> 1089 ;
1090 [label="gini = 0.2188\nsamples = 8\nvalue = [1, 7]"] ;
1074 -> 1090 ;
1091 [label="gini = 0.0\nsamples = 3\nvalue = [3, 0]"] ;
1073 -> 1091 ;
1092 [label="gini = 0.0\nsamples = 7\nvalue = [0, 7]"] ;
1072 -> 1092 ;
1093 [label="gini = 0.2188\nsamples = 8\nvalue = [7, 1]"] ;
1071 -> 1093 ;
1094 [label="X[54] <= 0.5\ngini = 0.4444\nsamples = 123\nvalue = [41, 82]"] ;
1068 -> 1094 ;
1095 [label="X[21] <= 0.5\ngini = 0.4723\nsamples = 102\nvalue = [39, 63]"] ;
1094 -> 1095 ;
1096 [label="gini = 0.0\nsamples = 11\nvalue = [0, 11]"] ;
1095 -> 1096 ;
1097 [label="gini = 0.4898\nsamples = 91\nvalue = [39, 52]"] ;
1095 -> 1097 ;
1098 [label="gini = 0.1723\nsamples = 21\nvalue = [2, 19]"] ;
1094 -> 1098 ;
1099 [label="gini = 0.3096\nsamples = 47\nvalue = [9, 38]"] ;
1067 -> 1099 ;
1100 [label="X[4] <= 0.301\ngini = 0.436\nsamples = 2382\nvalue = [765, 1617]"] ;
1062 -> 1100 ;
1101 [label="X[61] <= 0.5\ngini = 0.4977\nsamples = 191\nvalue = [102, 89]"] ;
1100 -> 1101 ;
1102 [label="gini = 0.4061\nsamples = 60\nvalue = [17, 43]"] ;
1101 -> 1102 ;
1103 [label="X[0] <= 0.3356\ngini = 0.4557\nsamples = 131\nvalue = [85, 46]"] ;
1101 -> 1103 ;
1104 [label="gini = 0.2076\nsamples = 17\nvalue = [15, 2]"] ;
1103 -> 1104 ;
1105 [label="X[0] <= 0.5685\ngini = 0.474\nsamples = 114\nvalue = [70, 44]"] ;
1103 -> 1105 ;
1106 [label="gini = 0.4998\nsamples = 47\nvalue = [23, 24]"] ;
1105 -> 1106 ;
1107 [label="gini = 0.4188\nsamples = 67\nvalue = [47, 20]"] ;
1105 -> 1107 ;
1108 [label="X[1] <= 0.8333\ngini = 0.4221\nsamples = 2191\nvalue = [663, 1528]"] ;
1100 -> 1108 ;
1109 [label="X[2] <= 0.0312\ngini = 0.4564\nsamples = 1351\nvalue = [476, 875]"] ;
1108 -> 1109 ;
1110 [label="X[38] <= 0.5\ngini = 0.4514\nsamples = 1328\nvalue = [457, 871]"] ;
1109 -> 1110 ;
1111 [label="X[42] <= 0.5\ngini = 0.4733\nsamples = 934\nvalue = [359, 575]"] ;
1110 -> 1111 ;
1112 [label="X[40] <= 0.5\ngini = 0.4692\nsamples = 918\nvalue = [345, 573]"] ;
1111 -> 1112 ;
1113 [label="X[4] <= 0.7143\ngini = 0.4652\nsamples = 902\nvalue = [332, 570]"] ;
1112 -> 1113 ;
1114 [label="X[3] <= 0.3573\ngini = 0.4612\nsamples = 890\nvalue = [321, 569]"] ;
1113 -> 1114 ;
1115 [label="X[9] <= 0.5\ngini = 0.4583\nsamples = 883\nvalue = [314, 569]"] ;
1114 -> 1115 ;
1116 [label="X[37] <= 0.5\ngini = 0.4467\nsamples = 781\nvalue = [263, 518]"] ;
1115 -> 1116 ;
1117 [label="X[4] <= 0.4082\ngini = 0.4364\nsamples = 712\nvalue = [229, 483]"] ;
1116 -> 1117 ;
1118 [label="X[100] <= 0.5\ngini = 0.4606\nsamples = 381\nvalue = [137, 244]"] ;
1117 -> 1118 ;
1119 [label="gini = 0.4898\nsamples = 35\nvalue = [20, 15]"] ;
1118 -> 1119 ;
1120 [label="X[0] <= 0.6096\ngini = 0.4476\nsamples = 346\nvalue = [117, 229]"] ;
1118 -> 1120 ;
1121 [label="X[48] <= 0.5\ngini = 0.4375\nsamples = 331\nvalue = [107, 224]"] ;
1120 -> 1121 ;
1122 [label="X[0] <= 0.2671\ngini = 0.4298\nsamples = 323\nvalue = [101, 222]"] ;
1121 -> 1122 ;
1123 [label="gini = 0.4884\nsamples = 59\nvalue = [25, 34]"] ;
1122 -> 1123 ;
1124 [label="X[41] <= 0.5\ngini = 0.41\nsamples = 264\nvalue = [76, 188]"] ;
1122 -> 1124 ;
1125 [label="X[10] <= 0.5\ngini = 0.4012\nsamples = 252\nvalue = [70, 182]"] ;
1124 -> 1125 ;
1126 [label="X[39] <= 0.5\ngini = 0.3849\nsamples = 223\nvalue = [58, 165]"] ;
1125 -> 1126 ;
1127 [label="X[54] <= 0.5\ngini = 0.3784\nsamples = 221\nvalue = [56, 165]"] ;
1126 -> 1127 ;
1128 [label="X[60] <= 0.5\ngini = 0.393\nsamples = 201\nvalue = [54, 147]"] ;
1127 -> 1128 ;
1129 [label="X[4] <= 0.3878\ngini = 0.3895\nsamples = 200\nvalue = [53, 147]"] ;
1128 -> 1129 ;
1130 [label="gini = 0.4922\nsamples = 16\nvalue = [7, 9]"] ;
1129 -> 1130 ;
1131 [label="X[59] <= 0.5\ngini = 0.375\nsamples = 184\nvalue = [46, 138]"] ;
1129 -> 1131 ;
1132 [label="gini = 0.1172\nsamples = 16\nvalue = [1, 15]"] ;
1131 -> 1132 ;
1133 [label="X[0] <= 0.4589\ngini = 0.3922\nsamples = 168\nvalue = [45, 123]"] ;
1131 -> 1133 ;
1134 [label="X[0] <= 0.4315\ngini = 0.4226\nsamples = 122\nvalue = [37, 85]"] ;
1133 -> 1134 ;
1135 [label="X[45] <= 0.5\ngini = 0.3864\nsamples = 107\nvalue = [28, 79]"] ;
1134 -> 1135 ;
1136 [label="X[47] <= 0.5\ngini = 0.3676\nsamples = 103\nvalue = [25, 78]"] ;
1135 -> 1136 ;
1137 [label="gini = 0.3484\nsamples = 89\nvalue = [20, 69]"] ;
1136 -> 1137 ;
1138 [label="gini = 0.4592\nsamples = 14\nvalue = [5, 9]"] ;
1136 -> 1138 ;
1139 [label="gini = 0.375\nsamples = 4\nvalue = [3, 1]"] ;
1135 -> 1139 ;
1140 [label="gini = 0.48\nsamples = 15\nvalue = [9, 6]"] ;
1134 -> 1140 ;
1141 [label="gini = 0.2873\nsamples = 46\nvalue = [8, 38]"] ;
1133 -> 1141 ;
1142 [label="gini = 0.0\nsamples = 1\nvalue = [1, 0]"] ;
1128 -> 1142 ;
1143 [label="gini = 0.18\nsamples = 20\nvalue = [2, 18]"] ;
1127 -> 1143 ;
1144 [label="gini = 0.0\nsamples = 2\nvalue = [2, 0]"] ;
1126 -> 1144 ;
1145 [label="gini = 0.4851\nsamples = 29\nvalue = [12, 17]"] ;
1125 -> 1145 ;
1146 [label="gini = 0.5\nsamples = 12\nvalue = [6, 6]"] ;
1124 -> 1146 ;
1147 [label="gini = 0.375\nsamples = 8\nvalue = [6, 2]"] ;
1121 -> 1147 ;
1148 [label="gini = 0.4444\nsamples = 15\nvalue = [10, 5]"] ;
1120 -> 1148 ;
1149 [label="X[6] <= 0.5\ngini = 0.4014\nsamples = 331\nvalue = [92, 239]"] ;
1117 -> 1149 ;
1150 [label="X[0] <= 0.5411\ngini = 0.3741\nsamples = 289\nvalue = [72, 217]"] ;
1149 -> 1150 ;
1151 [label="X[4] <= 0.5102\ngini = 0.3893\nsamples = 272\nvalue = [72, 200]"] ;
1150 -> 1151 ;
1152 [label="X[51] <= 0.5\ngini = 0.3484\nsamples = 178\nvalue = [40, 138]"] ;
1151 -> 1152 ;
1153 [label="X[92] <= 0.5\ngini = 0.3436\nsamples = 177\nvalue = [39, 138]"] ;
1152 -> 1153 ;
1154 [label="X[100] <= 0.5\ngini = 0.3386\nsamples = 176\nvalue = [38, 138]"] ;
1153 -> 1154 ;
1155 [label="gini = 0.0\nsamples = 10\nvalue = [0, 10]"] ;
1154 -> 1155 ;
1156 [label="X[0] <= 0.2397\ngini = 0.353\nsamples = 166\nvalue = [38, 128]"] ;
1154 -> 1156 ;
1157 [label="gini = 0.0\nsamples = 9\nvalue = [0, 9]"] ;
1156 -> 1157 ;
1158 [label="X[8] <= 0.5\ngini = 0.3669\nsamples = 157\nvalue = [38, 119]"] ;
1156 -> 1158 ;
1159 [label="X[47] <= 0.5\ngini = 0.3474\nsamples = 143\nvalue = [32, 111]"] ;
1158 -> 1159 ;
1160 [label="X[0] <= 0.4452\ngini = 0.3236\nsamples = 133\nvalue = [27, 106]"] ;
1159 -> 1160 ;
1161 [label="X[7] <= 0.5\ngini = 0.3394\nsamples = 120\nvalue = [26, 94]"] ;
1160 -> 1161 ;
1162 [label="gini = 0.1975\nsamples = 18\nvalue = [2, 16]"] ;
1161 -> 1162 ;
1163 [label="X[0] <= 0.363\ngini = 0.3599\nsamples = 102\nvalue = [24, 78]"] ;
1161 -> 1163 ;
1164 [label="gini = 0.3137\nsamples = 77\nvalue = [15, 62]"] ;
1163 -> 1164 ;
1165 [label="gini = 0.4608\nsamples = 25\nvalue = [9, 16]"] ;
1163 -> 1165 ;
1166 [label="gini = 0.142\nsamples = 13\nvalue = [1, 12]"] ;
1160 -> 1166 ;
1167 [label="gini = 0.5\nsamples = 10\nvalue = [5, 5]"] ;
1159 -> 1167 ;
1168 [label="gini = 0.4898\nsamples = 14\nvalue = [6, 8]"] ;
1158 -> 1168 ;
1169 [label="gini = 0.0\nsamples = 1\nvalue = [1, 0]"] ;
1153 -> 1169 ;
1170 [label="gini = 0.0\nsamples = 1\nvalue = [1, 0]"] ;
1152 -> 1170 ;
1171 [label="gini = 0.4491\nsamples = 94\nvalue = [32, 62]"] ;
1151 -> 1171 ;
1172 [label="gini = 0.0\nsamples = 17\nvalue = [0, 17]"] ;
1150 -> 1172 ;
1173 [label="gini = 0.4989\nsamples = 42\nvalue = [20, 22]"] ;
1149 -> 1173 ;
1174 [label="gini = 0.4999\nsamples = 69\nvalue = [34, 35]"] ;
1116 -> 1174 ;
1175 [label="X[47] <= 0.5\ngini = 0.5\nsamples = 102\nvalue = [51, 51]"] ;
1115 -> 1175 ;
1176 [label="gini = 0.4987\nsamples = 97\nvalue = [51, 46]"] ;
1175 -> 1176 ;
1177 [label="gini = 0.0\nsamples = 5\nvalue = [0, 5]"] ;
1175 -> 1177 ;
1178 [label="gini = 0.0\nsamples = 7\nvalue = [7, 0]"] ;
1114 -> 1178 ;
1179 [label="gini = 0.1528\nsamples = 12\nvalue = [11, 1]"] ;
1113 -> 1179 ;
1180 [label="gini = 0.3047\nsamples = 16\nvalue = [13, 3]"] ;
1112 -> 1180 ;
1181 [label="gini = 0.2188\nsamples = 16\nvalue = [14, 2]"] ;
1111 -> 1181 ;
1182 [label="X[9] <= 0.5\ngini = 0.3737\nsamples = 394\nvalue = [98, 296]"] ;
1110 -> 1182 ;
1183 [label="X[3] <= 0.1705\ngini = 0.3439\nsamples = 358\nvalue = [79, 279]"] ;
1182 -> 1183 ;
1184 [label="X[4] <= 0.6786\ngini = 0.334\nsamples = 354\nvalue = [75, 279]"] ;
1183 -> 1184 ;
1185 [label="X[4] <= 0.4592\ngini = 0.3235\nsamples = 345\nvalue = [70, 275]"] ;
1184 -> 1185 ;
1186 [label="X[0] <= 0.3082\ngini = 0.3714\nsamples = 207\nvalue = [51, 156]"] ;
1185 -> 1186 ;
1187 [label="gini = 0.4726\nsamples = 47\nvalue = [18, 29]"] ;
1186 -> 1187 ;
1188 [label="X[4] <= 0.4082\ngini = 0.3274\nsamples = 160\nvalue = [33, 127]"] ;
1186 -> 1188 ;
1189 [label="X[97] <= 0.5\ngini = 0.3671\nsamples = 128\nvalue = [31, 97]"] ;
1188 -> 1189 ;
1190 [label="X[4] <= 0.3316\ngini = 0.3608\nsamples = 127\nvalue = [30, 97]"] ;
1189 -> 1190 ;
1191 [label="gini = 0.0\nsamples = 1\nvalue = [1, 0]"] ;
1190 -> 1191 ;
1192 [label="X[73] <= 0.5\ngini = 0.3544\nsamples = 126\nvalue = [29, 97]"] ;
1190 -> 1192 ;
1193 [label="X[100] <= 0.5\ngini = 0.3476\nsamples = 125\nvalue = [28, 97]"] ;
1192 -> 1193 ;
1194 [label="gini = 0.0\nsamples = 8\nvalue = [0, 8]"] ;
1193 -> 1194 ;
1195 [label="X[0] <= 0.5\ngini = 0.3641\nsamples = 117\nvalue = [28, 89]"] ;
1193 -> 1195 ;
1196 [label="gini = 0.3282\nsamples = 87\nvalue = [18, 69]"] ;
1195 -> 1196 ;
1197 [label="gini = 0.4444\nsamples = 30\nvalue = [10, 20]"] ;
1195 -> 1197 ;
1198 [label="gini = 0.0\nsamples = 1\nvalue = [1, 0]"] ;
1192 -> 1198 ;
1199 [label="gini = 0.0\nsamples = 1\nvalue = [1, 0]"] ;
1189 -> 1199 ;
1200 [label="gini = 0.1172\nsamples = 32\nvalue = [2, 30]"] ;
1188 -> 1200 ;
1201 [label="X[85] <= 0.5\ngini = 0.2375\nsamples = 138\nvalue = [19, 119]"] ;
1185 -> 1201 ;
1202 [label="X[72] <= 0.5\ngini = 0.2282\nsamples = 137\nvalue = [18, 119]"] ;
1201 -> 1202 ;
1203 [label="X[57] <= 0.5\ngini = 0.2188\nsamples = 136\nvalue = [17, 119]"] ;
1202 -> 1203 ;
1204 [label="X[0] <= 0.6233\ngini = 0.2014\nsamples = 132\nvalue = [15, 117]"] ;
1203 -> 1204 ;
1205 [label="X[4] <= 0.5765\ngini = 0.1825\nsamples = 128\nvalue = [13, 115]"] ;
1204 -> 1205 ;
1206 [label="gini = 0.1486\nsamples = 99\nvalue = [8, 91]"] ;
1205 -> 1206 ;
1207 [label="gini = 0.2854\nsamples = 29\nvalue = [5, 24]"] ;
1205 -> 1207 ;
1208 [label="gini = 0.5\nsamples = 4\nvalue = [2, 2]"] ;
1204 -> 1208 ;
1209 [label="gini = 0.5\nsamples = 4\nvalue = [2, 2]"] ;
1203 -> 1209 ;
1210 [label="gini = 0.0\nsamples = 1\nvalue = [1, 0]"] ;
1202 -> 1210 ;
1211 [label="gini = 0.0\nsamples = 1\nvalue = [1, 0]"] ;
1201 -> 1211 ;
1212 [label="gini = 0.4938\nsamples = 9\nvalue = [5, 4]"] ;
1184 -> 1212 ;
